{"learner":{"attributes":{"scikit_learn":"{\"_estimator_type\": \"regressor\"}"},"feature_names":["hour_sin","hour_cos","dow_sin","dow_cos","month","rain_flag","Zone_id_code","payday_flag","rolling_4w_same_hour"],"feature_types":["float","float","float","float","int","int","int","int","float"],"gradient_booster":{"model":{"cats":{"enc":[],"feature_segments":[],"sorted_idx":[]},"gbtree_model_param":{"num_parallel_tree":"1","num_trees":"1000"},"iteration_indptr":[0,1,2,3,4,5,6,7,8,9,10,11,12,13,14,15,16,17,18,19,20,21,22,23,24,25,26,27,28,29,30,31,32,33,34,35,36,37,38,39,40,41,42,43,44,45,46,47,48,49,50,51,52,53,54,55,56,57,58,59,60,61,62,63,64,65,66,67,68,69,70,71,72,73,74,75,76,77,78,79,80,81,82,83,84,85,86,87,88,89,90,91,92,93,94,95,96,97,98,99,100,101,102,103,104,105,106,107,108,109,110,111,112,113,114,115,116,117,118,119,120,121,122,123,124,125,126,127,128,129,130,131,132,133,134,135,136,137,138,139,140,141,142,143,144,145,146,147,148,149,150,151,152,153,154,155,156,157,158,159,160,161,162,163,164,165,166,167,168,169,170,171,172,173,174,175,176,177,178,179,180,181,182,183,184,185,186,187,188,189,190,191,192,193,194,195,196,197,198,199,200,201,202,203,204,205,206,207,208,209,210,211,212,213,214,215,216,217,218,219,220,221,222,223,224,225,226,227,228,229,230,231,232,233,234,235,236,237,238,239,240,241,242,243,244,245,246,247,248,249,250,251,252,253,254,255,256,257,258,259,260,261,262,263,264,265,266,267,268,269,270,271,272,273,274,275,276,277,278,279,280,281,282,283,284,285,286,287,288,289,290,291,292,293,294,295,296,297,298,299,300,301,302,303,304,305,306,307,308,309,310,311,312,313,314,315,316,317,318,319,320,321,322,323,324,325,326,327,328,329,330,331,332,333,334,335,336,337,338,339,340,341,342,343,344,345,346,347,348,349,350,351,352,353,354,355,356,357,358,359,360,361,362,363,364,365,366,367,368,369,370,371,372,373,374,375,376,377,378,379,380,381,382,383,384,385,386,387,388,389,390,391,392,393,394,395,396,397,398,399,400,401,402,403,404,405,406,407,408,409,410,411,412,413,414,415,416,417,418,419,420,421,422,423,424,425,426,427,428,429,430,431,432,433,434,435,436,437,438,439,440,441,442,443,444,445,446,447,448,449,450,451,452,453,454,455,456,457,458,459,460,461,462,463,464,465,466,467,468,469,470,471,472,473,474,475,476,477,478,479,480,481,482,483,484,485,486,487,488,489,490,491,492,493,494,495,496,497,498,499,500,501,502,503,504,505,506,507,508,509,510,511,512,513,514,515,516,517,518,519,520,521,522,523,524,525,526,527,528,529,530,531,532,533,534,535,536,537,538,539,540,541,542,543,544,545,546,547,548,549,550,551,552,553,554,555,556,557,558,559,560,561,562,563,564,565,566,567,568,569,570,571,572,573,574,575,576,577,578,579,580,581,582,583,584,585,586,587,588,589,590,591,592,593,594,595,596,597,598,599,600,601,602,603,604,605,606,607,608,609,610,611,612,613,614,615,616,617,618,619,620,621,622,623,624,625,626,627,628,629,630,631,632,633,634,635,636,637,638,639,640,641,642,643,644,645,646,647,648,649,650,651,652,653,654,655,656,657,658,659,660,661,662,663,664,665,666,667,668,669,670,671,672,673,674,675,676,677,678,679,680,681,682,683,684,685,686,687,688,689,690,691,692,693,694,695,696,697,698,699,700,701,702,703,704,705,706,707,708,709,710,711,712,713,714,715,716,717,718,719,720,721,722,723,724,725,726,727,728,729,730,731,732,733,734,735,736,737,738,739,740,741,742,743,744,745,746,747,748,749,750,751,752,753,754,755,756,757,758,759,760,761,762,763,764,765,766,767,768,769,770,771,772,773,774,775,776,777,778,779,780,781,782,783,784,785,786,787,788,789,790,791,792,793,794,795,796,797,798,799,800,801,802,803,804,805,806,807,808,809,810,811,812,813,814,815,816,817,818,819,820,821,822,823,824,825,826,827,828,829,830,831,832,833,834,835,836,837,838,839,840,841,842,843,844,845,846,847,848,849,850,851,852,853,854,855,856,857,858,859,860,861,862,863,864,865,866,867,868,869,870,871,872,873,874,875,876,877,878,879,880,881,882,883,884,885,886,887,888,889,890,891,892,893,894,895,896,897,898,899,900,901,902,903,904,905,906,907,908,909,910,911,912,913,914,915,916,917,918,919,920,921,922,923,924,925,926,927,928,929,930,931,932,933,934,935,936,937,938,939,940,941,942,943,944,945,946,947,948,949,950,951,952,953,954,955,956,957,958,959,960,961,962,963,964,965,966,967,968,969,970,971,972,973,974,975,976,977,978,979,980,981,982,983,984,985,986,987,988,989,990,991,992,993,994,995,996,997,998,999,1000],"tree_info":[0,0,0,0,0,0,0,0,0,0,0,0,0,0,0,0,0,0,0,0,0,0,0,0,0,0,0,0,0,0,0,0,0,0,0,0,0,0,0,0,0,0,0,0,0,0,0,0,0,0,0,0,0,0,0,0,0,0,0,0,0,0,0,0,0,0,0,0,0,0,0,0,0,0,0,0,0,0,0,0,0,0,0,0,0,0,0,0,0,0,0,0,0,0,0,0,0,0,0,0,0,0,0,0,0,0,0,0,0,0,0,0,0,0,0,0,0,0,0,0,0,0,0,0,0,0,0,0,0,0,0,0,0,0,0,0,0,0,0,0,0,0,0,0,0,0,0,0,0,0,0,0,0,0,0,0,0,0,0,0,0,0,0,0,0,0,0,0,0,0,0,0,0,0,0,0,0,0,0,0,0,0,0,0,0,0,0,0,0,0,0,0,0,0,0,0,0,0,0,0,0,0,0,0,0,0,0,0,0,0,0,0,0,0,0,0,0,0,0,0,0,0,0,0,0,0,0,0,0,0,0,0,0,0,0,0,0,0,0,0,0,0,0,0,0,0,0,0,0,0,0,0,0,0,0,0,0,0,0,0,0,0,0,0,0,0,0,0,0,0,0,0,0,0,0,0,0,0,0,0,0,0,0,0,0,0,0,0,0,0,0,0,0,0,0,0,0,0,0,0,0,0,0,0,0,0,0,0,0,0,0,0,0,0,0,0,0,0,0,0,0,0,0,0,0,0,0,0,0,0,0,0,0,0,0,0,0,0,0,0,0,0,0,0,0,0,0,0,0,0,0,0,0,0,0,0,0,0,0,0,0,0,0,0,0,0,0,0,0,0,0,0,0,0,0,0,0,0,0,0,0,0,0,0,0,0,0,0,0,0,0,0,0,0,0,0,0,0,0,0,0,0,0,0,0,0,0,0,0,0,0,0,0,0,0,0,0,0,0,0,0,0,0,0,0,0,0,0,0,0,0,0,0,0,0,0,0,0,0,0,0,0,0,0,0,0,0,0,0,0,0,0,0,0,0,0,0,0,0,0,0,0,0,0,0,0,0,0,0,0,0,0,0,0,0,0,0,0,0,0,0,0,0,0,0,0,0,0,0,0,0,0,0,0,0,0,0,0,0,0,0,0,0,0,0,0,0,0,0,0,0,0,0,0,0,0,0,0,0,0,0,0,0,0,0,0,0,0,0,0,0,0,0,0,0,0,0,0,0,0,0,0,0,0,0,0,0,0,0,0,0,0,0,0,0,0,0,0,0,0,0,0,0,0,0,0,0,0,0,0,0,0,0,0,0,0,0,0,0,0,0,0,0,0,0,0,0,0,0,0,0,0,0,0,0,0,0,0,0,0,0,0,0,0,0,0,0,0,0,0,0,0,0,0,0,0,0,0,0,0,0,0,0,0,0,0,0,0,0,0,0,0,0,0,0,0,0,0,0,0,0,0,0,0,0,0,0,0,0,0,0,0,0,0,0,0,0,0,0,0,0,0,0,0,0,0,0,0,0,0,0,0,0,0,0,0,0,0,0,0,0,0,0,0,0,0,0,0,0,0,0,0,0,0,0,0,0,0,0,0,0,0,0,0,0,0,0,0,0,0,0,0,0,0,0,0,0,0,0,0,0,0,0,0,0,0,0,0,0,0,0,0,0,0,0,0,0,0,0,0,0,0,0,0,0,0,0,0,0,0,0,0,0,0,0,0,0,0,0,0,0,0,0,0,0,0,0,0,0,0,0,0,0,0,0,0,0,0,0,0,0,0,0,0,0,0,0,0,0,0,0,0,0,0,0,0,0,0,0,0,0,0,0,0,0,0,0,0,0,0,0,0,0,0,0,0,0,0,0,0,0,0,0,0,0,0,0,0,0,0,0,0,0,0,0,0,0,0,0,0,0,0,0,0,0,0,0,0,0,0,0,0,0,0,0,0,0,0,0,0,0,0,0,0,0,0,0,0,0,0,0,0,0,0,0,0,0,0,0,0,0,0,0,0,0,0,0,0,0,0,0,0,0,0,0,0,0,0,0,0,0,0,0,0,0,0,0,0,0,0,0,0,0,0,0,0,0,0,0,0,0,0,0,0,0,0,0,0,0,0,0,0,0,0,0,0,0,0,0,0,0,0,0,0,0,0,0,0,0,0,0,0,0,0,0,0,0,0,0,0,0,0,0,0,0,0,0,0,0,0,0,0,0,0,0,0,0,0,0,0,0,0,0,0,0,0,0,0,0,0,0,0,0,0,0,0,0,0,0,0],"trees":[{"base_weights":[9.593993E-5,-8.961317E-3,5.2795354E-2,1.3065353E-4,-3.0476235E-2,4.8337247E-2,9.83656E-2,1.6730294E-2,-7.565061E-3,-3.6964577E-2,-1.5663886E-2,6.313401E-2,3.380607E-2,-4.539663E-3,1.00040756E-1,2.3551192E-3,2.0444233E-4,-3.2817686E-4,4.607258E-4,-1.307936E-3,-9.683922E-4,-8.386873E-4,4.996127E-4,1.6756342E-3,2.7611451E-3,8.32496E-4,1.6483561E-3,1.5758735E-3,-1.2321688E-3,2.3696856E-3,3.106805E-3],"categories":[],"categories_nodes":[],"categories_segments":[],"categories_sizes":[],"default_left":[0,0,0,0,0,0,0,0,0,0,0,0,0,0,0,0,0,0,0,0,0,0,0,0,0,0,0,0,0,0,0],"id":0,"left_children":[1,3,5,7,9,11,13,15,17,19,21,23,25,27,29,-1,-1,-1,-1,-1,-1,-1,-1,-1,-1,-1,-1,-1,-1,-1,-1],"loss_changes":[6.9744806E0,2.4391024E0,4.3061066E-1,1.1199487E0,3.5540366E-1,4.1800404E-1,3.320694E-2,1.7004329E0,4.6346256E-1,7.861328E-2,4.4936946E-1,1.9832444E-1,1.2496185E-1,1.0496981E-2,5.674362E-3,0E0,0E0,0E0,0E0,0E0,0E0,0E0,0E0,0E0,0E0,0E0,0E0,0E0,0E0,0E0,0E0],"parents":[2147483647,0,0,1,1,2,2,3,3,4,4,5,5,6,6,7,7,8,8,9,9,10,10,11,11,12,12,13,13,14,14],"right_children":[2,4,6,8,10,12,14,16,18,20,22,24,26,28,30,-1,-1,-1,-1,-1,-1,-1,-1,-1,-1,-1,-1,-1,-1,-1,-1],"split_conditions":[2.5881904E-1,7.45E1,8.660254E-1,-4.3388373E-1,-5E-1,0E0,2.25E0,4E0,1E0,0E0,1E0,1E0,7.0710677E-1,-4.3388373E-1,5.75E0,2.3551192E-3,2.0444233E-4,-3.2817686E-4,4.607258E-4,-1.307936E-3,-9.683922E-4,-8.386873E-4,4.996127E-4,1.6756342E-3,2.7611451E-3,8.32496E-4,1.6483561E-3,1.5758735E-3,-1.2321688E-3,2.3696856E-3,3.106805E-3],"split_indices":[1,8,1,2,1,2,8,6,5,2,5,5,1,2,8,0,0,0,0,0,0,0,0,0,0,0,0,0,0,0,0],"split_type":[0,0,0,0,0,0,0,0,0,0,0,0,0,0,0,0,0,0,0,0,0,0,0,0,0,0,0,0,0,0,0],"sum_hessian":[1.461E4,1.2468E4,2.142E3,8.765E3,3.703E3,1.953E3,1.89E2,2.776E3,5.989E3,2.574E3,1.129E3,9.66E2,9.87E2,3E0,1.86E2,3.83E2,2.393E3,5.221E3,7.68E2,1.062E3,1.512E3,8.18E2,3.11E2,7.74E2,1.92E2,7.69E2,2.18E2,1E0,2E0,3E1,1.56E2],"tree_param":{"num_deleted":"0","num_feature":"9","num_nodes":"31","size_leaf_vector":"1"}},{"base_weights":[-3.6164984E-4,1.2068789E-2,-1.3793242E-2,1.8455014E-2,-1.0401824E-2,-4.752862E-3,-3.900757E-2,3.658225E-2,8.55318E-3,1.1816267E-3,-3.0237123E-2,-1.1172692E-2,4.295545E-2,-5.471068E-2,-3.694478E-2,8.988914E-4,2.0123404E-3,7.1649396E-5,6.2542164E-4,-9.3292154E-4,1.9381315E-4,-1.1234288E-3,-4.3821955E-4,-5.4800196E-4,1.9769851E-4,1.8341655E-3,8.040941E-4,-1.4590535E-3,-1.7973061E-3,-1.1919553E-3,-8.8716496E-4],"categories":[],"categories_nodes":[],"categories_segments":[],"categories_sizes":[],"default_left":[0,0,0,0,0,0,0,0,0,0,0,0,0,0,0,0,0,0,0,0,0,0,0,0,0,0,0,0,0,0,0],"id":1,"left_children":[1,3,5,7,9,11,13,15,17,19,21,23,25,27,29,-1,-1,-1,-1,-1,-1,-1,-1,-1,-1,-1,-1,-1,-1,-1,-1],"loss_changes":[2.4496455E0,1.0936803E0,1.6072977E0,1.0647979E0,3.8764286E-1,1.590682E0,5.826068E-2,4.2108345E-1,2.9091632E-1,1.8184179E-1,6.955165E-2,5.7686317E-1,1.7928278E-1,3.8464665E-3,3.2687902E-2,0E0,0E0,0E0,0E0,0E0,0E0,0E0,0E0,0E0,0E0,0E0,0E0,0E0,0E0,0E0,0E0],"parents":[2147483647,0,0,1,1,2,2,3,3,4,4,5,5,6,6,7,7,8,8,9,9,10,10,11,11,12,12,13,13,14,14],"right_children":[2,4,6,8,10,12,14,16,18,20,22,24,26,28,30,-1,-1,-1,-1,-1,-1,-1,-1,-1,-1,-1,-1,-1,-1,-1,-1],"split_conditions":[-2.5881904E-1,1.67E2,1.3366667E2,-4.3388373E-1,-7.0710677E-1,8.660254E-1,9E0,1E0,1E0,9E0,1E0,1E0,2.475E1,2.975E2,1E0,8.988914E-4,2.0123404E-3,7.1649396E-5,6.2542164E-4,-9.3292154E-4,1.9381315E-4,-1.1234288E-3,-4.3821955E-4,-5.4800196E-4,1.9769851E-4,1.8341655E-3,8.040941E-4,-1.4590535E-3,-1.7973061E-3,-1.1919553E-3,-8.8716496E-4],"split_indices":[0,8,8,2,0,0,4,5,7,4,7,7,8,8,7,0,0,0,0,0,0,0,0,0,0,0,0,0,0,0,0],"split_type":[0,0,0,0,0,0,0,0,0,0,0,0,0,0,0,0,0,0,0,0,0,0,0,0,0,0,0,0,0,0,0],"sum_hessian":[1.467E4,7.619E3,7.051E3,5.933E3,1.686E3,5.191E3,1.86E3,2.095E3,3.838E3,1.065E3,6.21E2,4.576E3,6.15E2,2.13E2,1.647E3,1.723E3,3.72E2,2.557E3,1.281E3,1.49E2,9.16E2,4.24E2,1.97E2,3.27E3,1.306E3,2.88E2,3.27E2,1.03E2,1.1E2,1.192E3,4.55E2],"tree_param":{"num_deleted":"0","num_feature":"9","num_nodes":"31","size_leaf_vector":"1"}},{"base_weights":[1.3837946E-4,7.7280602E-3,-2.410157E-2,2.0336485E-2,-6.021359E-3,-2.8682947E-3,-3.4675878E-2,3.8503297E-2,9.977326E-3,-1.15836775E-2,3.520028E-2,-8.6836945E-3,1.8750176E-2,-3.9113194E-2,-2.5887303E-2,2.1529093E-3,7.4046664E-4,6.2583206E-4,4.294509E-5,-1.618457E-5,-7.1082095E-4,1.2613338E-3,-5.1207625E-4,-1.3294385E-4,-1.1283564E-3,1.5943024E-3,-3.8566958E-4,-9.033991E-4,-1.375251E-3,-1.0957419E-3,-1.4510221E-4],"categories":[],"categories_nodes":[],"categories_segments":[],"categories_sizes":[],"default_left":[0,0,0,0,0,0,0,0,0,0,0,0,0,0,0,0,0,0,0,0,0,0,0,0,0,0,0,0,0,0,0],"id":2,"left_children":[1,3,5,7,9,11,13,15,17,19,21,23,25,27,29,-1,-1,-1,-1,-1,-1,-1,-1,-1,-1,-1,-1,-1,-1,-1,-1],"loss_changes":[2.687303E0,1.9285626E0,7.819288E-1,1.0916989E0,1.220678E0,1.4587238E-1,8.965731E-2,9.668031E-1,3.438301E-1,6.2727034E-1,2.2716826E-1,1.1226392E-1,2.6809174E-1,9.205723E-2,1.7515564E-1,0E0,0E0,0E0,0E0,0E0,0E0,0E0,0E0,0E0,0E0,0E0,0E0,0E0,0E0,0E0,0E0],"parents":[2147483647,0,0,1,1,2,2,3,3,4,4,5,5,6,6,7,7,8,8,9,9,10,10,11,11,12,12,13,13,14,14],"right_children":[2,4,6,8,10,12,14,16,18,20,22,24,26,28,30,-1,-1,-1,-1,-1,-1,-1,-1,-1,-1,-1,-1,-1,-1,-1,-1],"split_conditions":[1.605E2,-2.5881904E-1,-7.0710677E-1,-4.3388373E-1,8.660254E-1,1E0,1E0,1.2E1,1.5E1,1.6E1,7.45E1,8E0,1E1,2.92E2,7.818315E-1,2.1529093E-3,7.4046664E-4,6.2583206E-4,4.294509E-5,-1.618457E-5,-7.1082095E-4,1.2613338E-3,-5.1207625E-4,-1.3294385E-4,-1.1283564E-3,1.5943024E-3,-3.8566958E-4,-9.033991E-4,-1.375251E-3,-1.0957419E-3,-1.4510221E-4],"split_indices":[8,0,0,2,0,5,5,6,6,6,8,6,4,8,2,0,0,0,0,0,0,0,0,0,0,0,0,0,0,0,0],"split_type":[0,0,0,0,0,0,0,0,0,0,0,0,0,0,0,0,0,0,0,0,0,0,0,0,0,0,0,0,0,0,0],"sum_hessian":[1.4605E4,1.1123E4,3.482E3,5.802E3,5.321E3,1.158E3,2.324E3,2.106E3,3.696E3,4.689E3,6.32E2,9.13E2,2.45E2,1.542E3,7.82E2,6.17E2,1.489E3,1.625E3,2.071E3,2.453E3,2.236E3,5.59E2,7.3E1,7.97E2,1.16E2,1.17E2,1.28E2,6.62E2,8.8E2,5.19E2,2.63E2],"tree_param":{"num_deleted":"0","num_feature":"9","num_nodes":"31","size_leaf_vector":"1"}},{"base_weights":[-2.8401043E-4,-8.616083E-3,4.8400957E-2,-1.5339791E-2,5.5566137E-3,4.421433E-2,9.2689075E-2,6.6642063E-3,-1.7678764E-2,6.14522E-4,2.9283464E-2,5.8189902E-2,3.0657412E-2,2.8497314E-3,5.7951454E-2,2.3125662E-3,-7.754961E-4,-1.0755447E-3,-3.756417E-4,-1.4681485E-4,7.563438E-4,1.5064414E-3,1.13781854E-4,1.873874E-3,3.1104428E-5,6.922281E-4,1.6701159E-3,-4.1797437E-4,2.6429482E-3],"categories":[],"categories_nodes":[],"categories_segments":[],"categories_sizes":[],"default_left":[0,0,0,0,0,0,0,0,0,0,0,0,0,0,0,0,0,0,0,0,0,0,0,0,0,0,0,0,0],"id":3,"left_children":[1,3,5,7,9,11,13,15,17,19,21,23,25,-1,27,-1,-1,-1,-1,-1,-1,-1,-1,-1,-1,-1,-1,-1,-1],"loss_changes":[5.943141E0,1.1922015E0,3.928814E-1,4.3681324E-1,4.7207186E-1,3.6918974E-1,9.208679E-3,1.8703755E0,7.1841073E-1,4.5170677E-1,3.7009537E-1,2.350905E-1,1.876347E-1,0E0,3.1566437E-2,0E0,0E0,0E0,0E0,0E0,0E0,0E0,0E0,0E0,0E0,0E0,0E0,0E0,0E0],"parents":[2147483647,0,0,1,1,2,2,3,3,4,4,5,5,6,6,7,7,8,8,9,9,10,10,11,11,12,12,14,14],"right_children":[2,4,6,8,10,12,14,16,18,20,22,24,26,-1,28,-1,-1,-1,-1,-1,-1,-1,-1,-1,-1,-1,-1,-1,-1],"split_conditions":[2.5881904E-1,-5E-1,-5E-1,4E0,1E0,0E0,8E0,-4.3388373E-1,8E0,-7.0710677E-1,1E1,1.9E1,-7.0710677E-1,2.8497314E-3,1.1E1,2.3125662E-3,-7.754961E-4,-1.0755447E-3,-3.756417E-4,-1.4681485E-4,7.563438E-4,1.5064414E-3,1.13781854E-4,1.873874E-3,3.1104428E-5,6.922281E-4,1.6701159E-3,-4.1797437E-4,2.6429482E-3],"split_indices":[1,1,0,6,5,2,6,2,6,0,4,6,0,0,4,0,0,0,0,0,0,0,0,0,0,0,0,0,0],"split_type":[0,0,0,0,0,0,0,0,0,0,0,0,0,0,0,0,0,0,0,0,0,0,0,0,0,0,0,0,0],"sum_hessian":[1.4649E4,1.2509E4,2.14E3,8.484E3,4.025E3,1.957E3,1.83E2,8.15E2,7.669E3,3.332E3,6.93E2,9.62E2,9.95E2,1.7E2,1.3E1,2.57E2,5.58E2,1.694E3,5.975E3,2.723E3,6.09E2,3.8E2,3.13E2,8.95E2,6.7E1,7.65E2,2.3E2,4E0,9E0],"tree_param":{"num_deleted":"0","num_feature":"9","num_nodes":"29","size_leaf_vector":"1"}},{"base_weights":[-3.0945186E-4,-8.497711E-3,4.7624685E-2,1.409939E-4,-2.6182601E-2,5.0929155E-2,-3.1887987E-3,7.25304E-3,-1.8929726E-2,-3.2479964E-2,-1.2724002E-2,6.323619E-2,3.9019015E-2,-1.549947E-2,2.5205465E-2,8.9012587E-4,-6.28382E-5,-9.011313E-4,2.3054416E-4,-1.428841E-3,-9.1382925E-4,-1.2193408E-3,-2.711572E-4,2.0572282E-3,7.1842625E-4,8.4276363E-4,1.8585939E-3,2.2104704E-3,-6.7734683E-4,2.501084E-3,-8.0983446E-5],"categories":[],"categories_nodes":[],"categories_segments":[],"categories_sizes":[],"default_left":[0,0,0,0,0,0,0,0,0,0,0,0,0,0,0,0,0,0,0,0,0,0,0,0,0,0,0,0,0,0,0],"id":4,"left_children":[1,3,5,7,9,11,13,15,17,19,21,23,25,27,29,-1,-1,-1,-1,-1,-1,-1,-1,-1,-1,-1,-1,-1,-1,-1,-1],"loss_changes":[5.7300777E0,1.9049497E0,3.578148E-1,1.1364609E0,3.4639883E-1,2.9068947E-1,4.618204E-2,1.2789695E0,6.730933E-1,8.378649E-2,1.3401964E-1,2.0430851E-1,2.5361967E-1,5.97429E-2,6.514751E-2,0E0,0E0,0E0,0E0,0E0,0E0,0E0,0E0,0E0,0E0,0E0,0E0,0E0,0E0,0E0,0E0],"parents":[2147483647,0,0,1,1,2,2,3,3,4,4,5,5,6,6,7,7,8,8,9,9,10,10,11,11,12,12,13,13,14,14],"right_children":[2,4,6,8,10,12,14,16,18,20,22,24,26,28,30,-1,-1,-1,-1,-1,-1,-1,-1,-1,-1,-1,-1,-1,-1,-1,-1],"split_conditions":[2.5881904E-1,5.775E1,1.9E1,1.8E1,-5E-1,0E0,1E0,-4.3388373E-1,1E0,9E0,9E0,2.74E2,-7.0710677E-1,2.25E0,-4.3388373E-1,8.9012587E-4,-6.28382E-5,-9.011313E-4,2.3054416E-4,-1.428841E-3,-9.1382925E-4,-1.2193408E-3,-2.711572E-4,2.0572282E-3,7.1842625E-4,8.4276363E-4,1.8585939E-3,2.2104704E-3,-6.7734683E-4,2.501084E-3,-8.0983446E-5],"split_indices":[1,8,6,6,1,2,7,2,7,4,4,8,0,8,2,0,0,0,0,0,0,0,0,0,0,0,0,0,0,0,0],"split_type":[0,0,0,0,0,0,0,0,0,0,0,0,0,0,0,0,0,0,0,0,0,0,0,0,0,0,0,0,0,0,0],"sum_hessian":[1.4597E4,1.2468E4,2.129E3,8.377E3,4.091E3,1.999E3,1.3E2,6.102E3,2.275E3,2.786E3,1.305E3,9.81E2,1.018E3,9.1E1,3.9E1,1.795E3,4.307E3,1.605E3,6.7E2,3.25E2,2.461E3,1.51E2,1.154E3,8.63E2,1.18E2,6.91E2,3.27E2,6E0,8.5E1,1.2E1,2.7E1],"tree_param":{"num_deleted":"0","num_feature":"9","num_nodes":"31","size_leaf_vector":"1"}},{"base_weights":[1.0173463E-4,-7.870107E-3,4.657323E-2,-1.3659309E-2,4.3787337E-3,4.2605452E-2,8.9031935E-2,-1.981068E-2,1.2006778E-3,-7.263112E-4,2.881211E-2,5.100749E-2,2.5659362E-2,2.7256226E-3,6.4334795E-2,3.1108977E-4,-6.952572E-4,-4.0933036E-4,2.1619543E-4,-1.7071913E-4,6.325249E-4,1.2541135E-3,2.1395981E-4,1.6569267E-3,-3.7194917E-4,3.0274357E-4,8.9500454E-4,2.0799334E-3,5.8721023E-4],"categories":[],"categories_nodes":[],"categories_segments":[],"categories_sizes":[],"default_left":[0,0,0,0,0,0,0,0,0,0,0,0,0,0,0,0,0,0,0,0,0,0,0,0,0,0,0,0,0],"id":5,"left_children":[1,3,5,7,9,11,13,15,17,19,21,23,25,-1,27,-1,-1,-1,-1,-1,-1,-1,-1,-1,-1,-1,-1,-1,-1],"loss_changes":[5.4446964E0,8.8963854E-1,3.5874653E-1,7.7873933E-1,5.023227E-1,2.7918315E-1,2.3903847E-3,6.1204076E-1,2.225445E-1,3.6089E-1,1.957379E-1,3.5309362E-1,4.2262375E-2,0E0,2.221197E-3,0E0,0E0,0E0,0E0,0E0,0E0,0E0,0E0,0E0,0E0,0E0,0E0,0E0,0E0],"parents":[2147483647,0,0,1,1,2,2,3,3,4,4,5,5,6,6,7,7,8,8,9,9,10,10,11,11,12,12,14,14],"right_children":[2,4,6,8,10,12,14,16,18,20,22,24,26,-1,28,-1,-1,-1,-1,-1,-1,-1,-1,-1,-1,-1,-1,-1,-1],"split_conditions":[2.5881904E-1,-5E-1,-5E-1,1E0,1E0,4.3388373E-1,8E0,4E0,8E0,-7.0710677E-1,4.3388373E-1,1.9E1,6E0,2.7256226E-3,1E0,3.1108977E-4,-6.952572E-4,-4.0933036E-4,2.1619543E-4,-1.7071913E-4,6.325249E-4,1.2541135E-3,2.1395981E-4,1.6569267E-3,-3.7194917E-4,3.0274357E-4,8.9500454E-4,2.0799334E-3,5.8721023E-4],"split_indices":[1,1,0,7,5,2,6,6,6,0,2,6,6,0,3,0,0,0,0,0,0,0,0,0,0,0,0,0,0],"split_type":[0,0,0,0,0,0,0,0,0,0,0,0,0,0,0,0,0,0,0,0,0,0,0,0,0,0,0,0,0],"sum_hessian":[1.4695E4,1.2544E4,2.151E3,8.518E3,4.026E3,1.969E3,1.82E2,6.024E3,2.494E3,3.331E3,6.95E2,1.315E3,6.54E2,1.67E2,1.5E1,6.04E2,5.42E3,7.18E2,1.776E3,2.714E3,6.17E2,4.34E2,2.61E2,1.233E3,8.2E1,1.39E2,5.15E2,1.3E1,2E0],"tree_param":{"num_deleted":"0","num_feature":"9","num_nodes":"29","size_leaf_vector":"1"}},{"base_weights":[-4.8271858E-4,-8.211814E-3,4.470327E-2,7.3901954E-4,-2.46897E-2,4.785662E-2,-1.4271935E-3,7.666804E-3,-1.734932E-2,-3.1097826E-2,-1.1388103E-2,5.656992E-2,3.0410476E-2,-1.6197758E-2,2.4597544E-2,8.3892245E-4,-2.956915E-5,-8.162877E-4,1.9560242E-4,-1.0255731E-3,-6.948574E-4,-6.8731845E-4,5.669539E-4,1.5164183E-3,2.5425567E-3,5.8043934E-4,1.6541778E-3,1.8774538E-4,-1.262777E-3,1.1566704E-3,-7.076709E-5],"categories":[],"categories_nodes":[],"categories_segments":[],"categories_sizes":[],"default_left":[0,0,0,0,0,0,0,0,0,0,0,0,0,0,0,0,0,0,0,0,0,0,0,0,0,0,0,0,0,0,0],"id":6,"left_children":[1,3,5,7,9,11,13,15,17,19,21,23,25,27,29,-1,-1,-1,-1,-1,-1,-1,-1,-1,-1,-1,-1,-1,-1,-1,-1],"loss_changes":[5.0833054E0,1.8331817E0,3.0932808E-1,1.0095221E0,3.7256336E-1,3.007865E-1,5.3061232E-2,1.02302E0,5.2526295E-1,7.154894E-2,4.973767E-1,2.2077799E-1,1.80852E-1,5.143474E-2,1.8904038E-2,0E0,0E0,0E0,0E0,0E0,0E0,0E0,0E0,0E0,0E0,0E0,0E0,0E0,0E0,0E0,0E0],"parents":[2147483647,0,0,1,1,2,2,3,3,4,4,5,5,6,6,7,7,8,8,9,9,10,10,11,11,12,12,13,13,14,14],"right_children":[2,4,6,8,10,12,14,16,18,20,22,24,26,28,30,-1,-1,-1,-1,-1,-1,-1,-1,-1,-1,-1,-1,-1,-1,-1,-1],"split_conditions":[2.5881904E-1,5.175E1,1.9E1,1.8E1,-5E-1,4.3388373E-1,4.3388373E-1,-4.3388373E-1,1E0,1E0,1E0,1E0,-7.0710677E-1,-4.3388373E-1,9.749279E-1,8.3892245E-4,-2.956915E-5,-8.162877E-4,1.9560242E-4,-1.0255731E-3,-6.948574E-4,-6.8731845E-4,5.669539E-4,1.5164183E-3,2.5425567E-3,5.8043934E-4,1.6541778E-3,1.8774538E-4,-1.262777E-3,1.1566704E-3,-7.076709E-5],"split_indices":[1,8,6,6,1,2,2,2,7,7,5,5,0,2,2,0,0,0,0,0,0,0,0,0,0,0,0,0,0,0,0],"split_type":[0,0,0,0,0,0,0,0,0,0,0,0,0,0,0,0,0,0,0,0,0,0,0,0,0,0,0,0,0,0,0],"sum_hessian":[1.4553E4,1.2428E4,2.125E3,8.054E3,4.374E3,1.989E3,1.36E2,5.824E3,2.23E3,2.951E3,1.423E3,1.325E3,6.64E2,8.7E1,4.9E1,1.74E3,4.084E3,1.578E3,6.52E2,2.122E3,8.29E2,1.031E3,3.92E2,1.094E3,2.31E2,4.6E2,2.04E2,4.7E1,4E1,3.2E1,1.7E1],"tree_param":{"num_deleted":"0","num_feature":"9","num_nodes":"31","size_leaf_vector":"1"}},{"base_weights":[5.1378453E-4,-6.6559226E-3,4.155576E-2,2.3612264E-3,-2.4775714E-2,3.7700094E-2,8.238501E-2,-1.6002021E-4,4.1061934E-2,-3.0575415E-2,-1.0652354E-2,3.2614302E-2,6.46562E-2,5.4936048E-2,2.6636855E-3,-1.9722214E-4,4.5489368E-4,1.081614E-3,2.6857108E-3,-1.0490003E-3,-6.3699216E-4,6.3534896E-4,-6.403405E-4,8.1239257E-4,1.3255733E-3,2.5063374E-3,1.1454234E-3,5.295523E-4,2.354533E-3],"categories":[],"categories_nodes":[],"categories_segments":[],"categories_sizes":[],"default_left":[0,0,0,0,0,0,0,0,0,0,0,0,0,0,0,0,0,0,0,0,0,0,0,0,0,0,0,0,0],"id":7,"left_children":[1,3,5,7,9,11,13,15,17,19,21,23,25,27,-1,-1,-1,-1,-1,-1,-1,-1,-1,-1,-1,-1,-1,-1,-1],"loss_changes":[4.307638E0,2.0362103E0,3.3960605E-1,8.120177E-1,3.388691E-1,2.708435E-1,2.7996302E-2,7.680864E-1,1.2030804E-1,1.1966491E-1,4.1124707E-1,1.0620344E-1,1.5433466E-1,3.197804E-2,0E0,0E0,0E0,0E0,0E0,0E0,0E0,0E0,0E0,0E0,0E0,0E0,0E0,0E0,0E0],"parents":[2147483647,0,0,1,1,2,2,3,3,4,4,5,5,6,6,7,7,8,8,9,9,10,10,11,11,12,12,13,13],"right_children":[2,4,6,8,10,12,14,16,18,20,22,24,26,28,-1,-1,-1,-1,-1,-1,-1,-1,-1,-1,-1,-1,-1,-1,-1],"split_conditions":[2.5881904E-1,5.7E1,-5E-1,8.660254E-1,1E0,1E0,6.25E0,1E0,1E0,1E0,-7.0710677E-1,1E0,1E1,1E1,2.6636855E-3,-1.9722214E-4,4.5489368E-4,1.081614E-3,2.6857108E-3,-1.0490003E-3,-6.3699216E-4,6.3534896E-4,-6.403405E-4,8.1239257E-4,1.3255733E-3,2.5063374E-3,1.1454234E-3,5.295523E-4,2.354533E-3],"split_indices":[1,8,0,0,5,5,8,7,5,7,0,7,4,4,0,0,0,0,0,0,0,0,0,0,0,0,0,0,0],"split_type":[0,0,0,0,0,0,0,0,0,0,0,0,0,0,0,0,0,0,0,0,0,0,0,0,0,0,0,0,0],"sum_hessian":[1.4637E4,1.2461E4,2.176E3,8.321E3,4.14E3,1.99E3,1.86E2,7.813E3,5.08E2,2.934E3,1.206E3,1.676E3,3.14E2,3.7E1,1.49E2,5.508E3,2.305E3,4.62E2,4.6E1,1.994E3,9.4E2,3.03E2,9.03E2,1.136E3,5.4E2,1.82E2,1.32E2,1.5E1,2.2E1],"tree_param":{"num_deleted":"0","num_feature":"9","num_nodes":"29","size_leaf_vector":"1"}},{"base_weights":[-3.5355258E-4,-7.4655237E-3,4.0938407E-2,1.3857251E-3,-2.3685426E-2,3.7558973E-2,7.88438E-2,-1.029601E-3,3.9765287E-2,-3.2360382E-2,-1.5739111E-2,3.2169666E-2,6.54352E-2,-2.4148189E-3,8.027515E-2,3.9119142E-4,-2.231996E-4,1.6098986E-3,5.4689724E-4,-7.409513E-4,-1.1246802E-3,-6.9635006E-4,1.2353418E-4,1.3039119E-3,6.6444394E-4,2.3343842E-3,1.1265033E-3,1.9254778E-3,-1.3802446E-3,1.6973404E-3,2.512069E-3],"categories":[],"categories_nodes":[],"categories_segments":[],"categories_sizes":[],"default_left":[0,0,0,0,0,0,0,0,0,0,0,0,0,0,0,0,0,0,0,0,0,0,0,0,0,0,0,0,0,0,0],"id":8,"left_children":[1,3,5,7,9,11,13,15,17,19,21,23,25,27,29,-1,-1,-1,-1,-1,-1,-1,-1,-1,-1,-1,-1,-1,-1,-1,-1],"loss_changes":[4.2951884E0,1.7913105E0,2.7232313E-1,7.484013E-1,3.031447E-1,2.9460597E-1,2.0547986E-2,6.851783E-1,1.420865E-1,8.1796646E-2,3.4152246E-1,1.8658292E-1,1.0718131E-1,1.4565737E-2,9.366989E-3,0E0,0E0,0E0,0E0,0E0,0E0,0E0,0E0,0E0,0E0,0E0,0E0,0E0,0E0,0E0,0E0],"parents":[2147483647,0,0,1,1,2,2,3,3,4,4,5,5,6,6,7,7,8,8,9,9,10,10,11,11,12,12,13,13,14,14],"right_children":[2,4,6,8,10,12,14,16,18,20,22,24,26,28,30,-1,-1,-1,-1,-1,-1,-1,-1,-1,-1,-1,-1,-1,-1,-1,-1],"split_conditions":[2.5881904E-1,5.175E1,-5E-1,8.660254E-1,-7.0710677E-1,1E0,2.25E0,-4.3388373E-1,2.475E1,1.2246469E-16,1E0,0E0,4.3388373E-1,-2.2252093E-1,5.25E0,3.9119142E-4,-2.231996E-4,1.6098986E-3,5.4689724E-4,-7.409513E-4,-1.1246802E-3,-6.9635006E-4,1.2353418E-4,1.3039119E-3,6.6444394E-4,2.3343842E-3,1.1265033E-3,1.9254778E-3,-1.3802446E-3,1.6973404E-3,2.512069E-3],"split_indices":[1,8,0,0,1,5,8,2,8,0,5,2,2,3,8,0,0,0,0,0,0,0,0,0,0,0,0,0,0,0,0],"split_type":[0,0,0,0,0,0,0,0,0,0,0,0,0,0,0,0,0,0,0,0,0,0,0,0,0,0,0,0,0,0,0],"sum_hessian":[1.4624E4,1.2476E4,2.148E3,8.072E3,4.404E3,1.974E3,1.74E2,7.595E3,4.77E2,2.104E3,2.3E3,1.656E3,3.18E2,3E0,1.71E2,2.377E3,5.218E3,2.89E2,1.88E2,8.46E2,1.258E3,1.671E3,6.29E2,7.77E2,8.79E2,2.19E2,9.9E1,1E0,2E0,2.4E1,1.47E2],"tree_param":{"num_deleted":"0","num_feature":"9","num_nodes":"31","size_leaf_vector":"1"}},{"base_weights":[-5.8412855E-4,-7.6541444E-3,3.954745E-2,1.4451321E-4,-2.3399428E-2,3.5970494E-2,7.6739274E-2,6.4711366E-3,-1.6888767E-2,-2.855907E-2,-1.0854893E-2,4.8174802E-2,2.4233446E-2,4.7080822E-2,2.5359613E-3,7.9574395E-4,-6.03518E-5,-2.6673896E-4,-8.1205997E-4,-4.5795026E-4,-9.2868804E-4,6.1552075E-4,-6.248926E-4,1.5564063E-3,-1.14396615E-4,5.684938E-4,1.262939E-3,1.7616963E-3,5.8804586E-4],"categories":[],"categories_nodes":[],"categories_segments":[],"categories_sizes":[],"default_left":[0,0,0,0,0,0,0,0,0,0,0,0,0,0,0,0,0,0,0,0,0,0,0,0,0,0,0,0,0],"id":9,"left_children":[1,3,5,7,9,11,13,15,17,19,21,23,25,27,-1,-1,-1,-1,-1,-1,-1,-1,-1,-1,-1,-1,-1,-1,-1],"loss_changes":[4.142774E0,1.5243441E0,2.8818417E-1,8.9486676E-1,2.658403E-1,2.8488827E-1,4.016435E-2,1.0300844E0,1.8285799E-1,9.236026E-2,3.7594798E-1,1.8859625E-1,9.5479965E-2,1.2285762E-2,0E0,0E0,0E0,0E0,0E0,0E0,0E0,0E0,0E0,0E0,0E0,0E0,0E0,0E0,0E0],"parents":[2147483647,0,0,1,1,2,2,3,3,4,4,5,5,6,6,7,7,8,8,9,9,10,10,11,11,12,12,13,13],"right_children":[2,4,6,8,10,12,14,16,18,20,22,24,26,28,-1,-1,-1,-1,-1,-1,-1,-1,-1,-1,-1,-1,-1,-1,-1],"split_conditions":[2.5881904E-1,5.7E1,-5E-1,1.8E1,1E0,0E0,6.25E0,-4.3388373E-1,1.2246469E-16,1.19E2,-7.0710677E-1,1.9E1,-7.0710677E-1,1E0,2.5359613E-3,7.9574395E-4,-6.03518E-5,-2.6673896E-4,-8.1205997E-4,-4.5795026E-4,-9.2868804E-4,6.1552075E-4,-6.248926E-4,1.5564063E-3,-1.14396615E-4,5.684938E-4,1.262939E-3,1.7616963E-3,5.8804586E-4],"split_indices":[1,8,0,6,5,2,8,2,0,8,0,6,0,3,0,0,0,0,0,0,0,0,0,0,0,0,0,0,0],"split_type":[0,0,0,0,0,0,0,0,0,0,0,0,0,0,0,0,0,0,0,0,0,0,0,0,0,0,0,0,0],"sum_hessian":[1.4599E4,1.2413E4,2.186E3,8.302E3,4.111E3,1.996E3,1.9E2,6.054E3,2.248E3,2.912E3,1.199E3,9.77E2,1.019E3,4.1E1,1.49E2,1.799E3,4.255E3,1.26E3,9.88E2,4.46E2,2.466E3,2.89E2,9.1E2,9.12E2,6.5E1,7.88E2,2.31E2,2.8E1,1.3E1],"tree_param":{"num_deleted":"0","num_feature":"9","num_nodes":"29","size_leaf_vector":"1"}},{"base_weights":[7.177365E-5,1.1257934E-2,-1.19721675E-2,1.6806498E-2,-8.315341E-3,-4.4936812E-3,-3.1954274E-2,2.9340414E-2,5.4848143E-3,-3.7636627E-2,-3.944759E-3,-9.682774E-3,3.44147E-2,-2.3622293E-2,-3.594977E-2,1.613345E-3,5.744486E-4,4.655784E-4,-7.140687E-5,-3.2222204E-4,-1.267674E-3,1.3422922E-4,-5.762673E-4,-3.9068045E-4,5.280119E-4,1.6114493E-3,5.3755275E-4,-8.8580797E-4,-2.25753E-4,-1.2475764E-3,-7.513003E-4],"categories":[],"categories_nodes":[],"categories_segments":[],"categories_sizes":[],"default_left":[0,0,0,0,0,0,0,0,0,0,0,0,0,0,0,0,0,0,0,0,0,0,0,0,0,0,0,0,0,0,0],"id":10,"left_children":[1,3,5,7,9,11,13,15,17,19,21,23,25,27,29,-1,-1,-1,-1,-1,-1,-1,-1,-1,-1,-1,-1,-1,-1,-1,-1],"loss_changes":[1.9593126E0,8.1901073E-1,1.0463562E0,8.335314E-1,2.133512E-1,1.0294133E0,6.263554E-2,6.9338465E-1,2.4374653E-1,2.6381314E-2,1.8655379E-1,4.101018E-1,1.9006705E-1,5.8802694E-2,7.807028E-2,0E0,0E0,0E0,0E0,0E0,0E0,0E0,0E0,0E0,0E0,0E0,0E0,0E0,0E0,0E0,0E0],"parents":[2147483647,0,0,1,1,2,2,3,3,4,4,5,5,6,6,7,7,8,8,9,9,10,10,11,11,12,12,13,13,14,14],"right_children":[2,4,6,8,10,12,14,16,18,20,22,24,26,28,30,-1,-1,-1,-1,-1,-1,-1,-1,-1,-1,-1,-1,-1,-1,-1,-1],"split_conditions":[-2.5881904E-1,1.67E2,1.19E2,0E0,9E0,8.660254E-1,6E0,1.2E1,1.5E1,2.39E2,-7.0710677E-1,1E0,2.475E1,1E0,4.3388373E-1,1.613345E-3,5.744486E-4,4.655784E-4,-7.140687E-5,-3.2222204E-4,-1.267674E-3,1.3422922E-4,-5.762673E-4,-3.9068045E-4,5.280119E-4,1.6114493E-3,5.3755275E-4,-8.8580797E-4,-2.25753E-4,-1.2475764E-3,-7.513003E-4],"split_indices":[0,8,8,2,4,0,6,6,6,8,0,5,8,3,2,0,0,0,0,0,0,0,0,0,0,0,0,0,0,0,0],"split_type":[0,0,0,0,0,0,0,0,0,0,0,0,0,0,0,0,0,0,0,0,0,0,0,0,0,0,0,0,0,0,0],"sum_hessian":[1.4541E4,7.539E3,7.002E3,5.874E3,1.665E3,5.096E3,1.906E3,2.787E3,3.087E3,2.15E2,1.45E3,4.497E3,5.99E2,6.2E2,1.286E3,8.19E2,1.968E3,1.356E3,1.731E3,3.2E1,1.83E2,9.35E2,5.15E2,4.007E3,4.9E2,2.75E2,3.24E2,4.53E2,1.67E2,8.46E2,4.4E2],"tree_param":{"num_deleted":"0","num_feature":"9","num_nodes":"31","size_leaf_vector":"1"}},{"base_weights":[-4.6279372E-4,-7.1538896E-3,3.836207E-2,-1.2176794E-2,4.882398E-3,3.499856E-2,7.343651E-2,-6.8032155E-3,-3.2520313E-2,-3.396327E-3,3.621146E-2,4.6677496E-2,2.3567896E-2,7.554661E-2,4.8015792E-2,7.237625E-4,-2.9797203E-4,-7.860851E-4,-1.2726694E-3,-5.945558E-4,1.0663335E-4,-7.9747307E-4,1.2777791E-3,1.5340704E-3,-4.4266687E-4,9.194885E-4,-1.1302144E-6,1.97111E-3,2.4095452E-3,-3.2175303E-4,2.4309386E-3],"categories":[],"categories_nodes":[],"categories_segments":[],"categories_sizes":[],"default_left":[0,0,0,0,0,0,0,0,0,0,0,0,0,0,0,0,0,0,0,0,0,0,0,0,0,0,0,0,0,0,0],"id":11,"left_children":[1,3,5,7,9,11,13,15,17,19,21,23,25,27,29,-1,-1,-1,-1,-1,-1,-1,-1,-1,-1,-1,-1,-1,-1,-1,-1],"loss_changes":[3.774631E0,7.493649E-1,2.4942088E-1,9.557605E-1,9.4680405E-1,2.593546E-1,6.3495636E-3,6.698706E-1,1.1317742E-1,3.2972693E-1,3.0686545E-1,2.6477456E-1,1.6516316E-1,2.7070642E-3,3.3838183E-2,0E0,0E0,0E0,0E0,0E0,0E0,0E0,0E0,0E0,0E0,0E0,0E0,0E0,0E0,0E0,0E0],"parents":[2147483647,0,0,1,1,2,2,3,3,4,4,5,5,6,6,7,7,8,8,9,9,10,10,11,11,12,12,13,13,14,14],"right_children":[2,4,6,8,10,12,14,16,18,20,22,24,26,28,30,-1,-1,-1,-1,-1,-1,-1,-1,-1,-1,-1,-1,-1,-1,-1,-1],"split_conditions":[2.5881904E-1,1E0,8.660254E-1,1.1E1,1.1E1,0E0,8E0,4E0,1.6E1,8E0,4E0,1.9E1,1.1E1,6E0,1.1E1,7.237625E-4,-2.9797203E-4,-7.860851E-4,-1.2726694E-3,-5.945558E-4,1.0663335E-4,-7.9747307E-4,1.2777791E-3,1.5340704E-3,-4.4266687E-4,9.194885E-4,-1.1302144E-6,1.97111E-3,2.4095452E-3,-3.2175303E-4,2.4309386E-3],"split_indices":[1,7,1,4,4,2,6,6,6,6,6,6,4,6,4,0,0,0,0,0,0,0,0,0,0,0,0,0,0,0,0],"split_type":[0,0,0,0,0,0,0,0,0,0,0,0,0,0,0,0,0,0,0,0,0,0,0,0,0,0,0,0,0,0,0],"sum_hessian":[1.4528E4,1.2393E4,2.135E3,8.744E3,3.649E3,1.95E3,1.85E2,6.918E3,1.826E3,2.887E3,7.62E2,9.63E2,9.87E2,1.69E2,1.6E1,6.35E2,6.283E3,1.117E3,7.09E2,8.58E2,2.029E3,7E1,6.92E2,8.98E2,6.5E1,7.59E2,2.28E2,6E1,1.09E2,6E0,1E1],"tree_param":{"num_deleted":"0","num_feature":"9","num_nodes":"31","size_leaf_vector":"1"}},{"base_weights":[5.260401E-5,5.718379E-3,-1.8210704E-2,1.4890467E-2,-4.0957094E-3,-8.765053E-4,-2.6591616E-2,2.6671404E-2,4.2722463E-3,-9.286053E-3,3.489563E-2,-2.9931206E-2,3.773146E-3,-3.041111E-2,-1.7789211E-2,4.966526E-4,1.1050475E-3,2.6425248E-4,-3.1333783E-4,-4.5135588E-4,1.5394023E-4,1.1616665E-3,-1.303114E-3,-5.5574474E-4,-1.3561405E-3,-1.8826808E-4,8.020153E-4,-1.0431248E-3,-4.572589E-4,-9.01902E-4,9.173612E-4],"categories":[],"categories_nodes":[],"categories_segments":[],"categories_sizes":[],"default_left":[0,0,0,0,0,0,0,0,0,0,0,0,0,0,0,0,0,0,0,0,0,0,0,0,0,0,0,0,0,0,0],"id":12,"left_children":[1,3,5,7,9,11,13,15,17,19,21,23,25,27,29,-1,-1,-1,-1,-1,-1,-1,-1,-1,-1,-1,-1,-1,-1,-1,-1],"loss_changes":[1.5138514E0,1.0051761E0,5.032141E-1,7.219204E-1,1.0921556E0,1.5276942E-1,7.796335E-2,2.806983E-1,2.0283632E-1,3.9547488E-1,1.9172192E-1,2.6340142E-2,2.251259E-1,1.0706878E-1,4.2183626E-1,0E0,0E0,0E0,0E0,0E0,0E0,0E0,0E0,0E0,0E0,0E0,0E0,0E0,0E0,0E0,0E0],"parents":[2147483647,0,0,1,1,2,2,3,3,4,4,5,5,6,6,7,7,8,8,9,9,10,10,11,11,12,12,13,13,14,14],"right_children":[2,4,6,8,10,12,14,16,18,20,22,24,26,28,30,-1,-1,-1,-1,-1,-1,-1,-1,-1,-1,-1,-1,-1,-1,-1,-1],"split_conditions":[1.605E2,-2.5881904E-1,-7.0710677E-1,0E0,8.660254E-1,9E0,1E0,6.234898E-1,1.1E1,1E0,1.2625E2,0E0,1E0,7.818315E-1,1.1E1,4.966526E-4,1.1050475E-3,2.6425248E-4,-3.1333783E-4,-4.5135588E-4,1.5394023E-4,1.1616665E-3,-1.303114E-3,-5.5574474E-4,-1.3561405E-3,-1.8826808E-4,8.020153E-4,-1.0431248E-3,-4.572589E-4,-9.01902E-4,9.173612E-4],"split_indices":[8,0,0,2,0,4,7,3,4,7,8,2,7,2,4,0,0,0,0,0,0,0,0,0,0,0,0,0,0,0,0],"split_type":[0,0,0,0,0,0,0,0,0,0,0,0,0,0,0,0,0,0,0,0,0,0,0,0,0,0,0,0,0,0,0],"sum_hessian":[1.4628E4,1.1165E4,3.463E3,5.771E3,5.394E3,1.129E3,2.334E3,2.735E3,3.036E3,4.761E3,6.33E2,1.55E2,9.74E2,1.626E3,7.08E2,1.372E3,1.363E3,2.321E3,7.15E2,3.402E3,1.359E3,6.04E2,2.9E1,9E1,6.5E1,6.78E2,2.96E2,1.262E3,3.64E2,5.65E2,1.43E2],"tree_param":{"num_deleted":"0","num_feature":"9","num_nodes":"31","size_leaf_vector":"1"}},{"base_weights":[8.1560356E-5,-6.2143337E-3,3.6366977E-2,1.7907909E-3,-2.015139E-2,2.9315101E-2,5.429444E-2,9.223504E-3,-1.6944781E-2,-2.5993042E-2,-8.154156E-3,4.563804E-2,2.0365024E-2,6.915981E-2,2.5508536E-2,8.6561835E-4,2.5824254E-5,-8.010521E-4,2.0050611E-4,-8.600254E-4,-5.849872E-4,6.6587585E-5,-3.6969644E-4,1.515182E-3,-1.2741289E-4,3.290856E-4,8.3686184E-4,2.2153126E-3,1.614862E-3,-1.8663763E-4,1.1042289E-3],"categories":[],"categories_nodes":[],"categories_segments":[],"categories_sizes":[],"default_left":[0,0,0,0,0,0,0,0,0,0,0,0,0,0,0,0,0,0,0,0,0,0,0,0,0,0,0,0,0,0,0],"id":13,"left_children":[1,3,5,7,9,11,13,15,17,19,21,23,25,27,29,-1,-1,-1,-1,-1,-1,-1,-1,-1,-1,-1,-1,-1,-1,-1,-1],"loss_changes":[3.3559153E0,1.3966427E0,2.7299738E-1,1.107521E0,3.1986022E-1,2.2711945E-1,2.6011872E-1,9.3472147E-1,5.2096957E-1,5.2773952E-2,6.477072E-2,1.342634E-1,7.1153164E-2,2.4964333E-2,7.5517744E-2,0E0,0E0,0E0,0E0,0E0,0E0,0E0,0E0,0E0,0E0,0E0,0E0,0E0,0E0,0E0,0E0],"parents":[2147483647,0,0,1,1,2,2,3,3,4,4,5,5,6,6,7,7,8,8,9,9,10,10,11,11,12,12,13,13,14,14],"right_children":[2,4,6,8,10,12,14,16,18,20,22,24,26,28,30,-1,-1,-1,-1,-1,-1,-1,-1,-1,-1,-1,-1,-1,-1,-1,-1],"split_conditions":[2.5881904E-1,4.95E1,-7.0710677E-1,1.8E1,-5E-1,-4.3388373E-1,4.95E1,-4.3388373E-1,1E0,1E0,1.3366667E2,1.9E1,2.875E1,3.875E1,5.7E1,8.6561835E-4,2.5824254E-5,-8.010521E-4,2.0050611E-4,-8.600254E-4,-5.849872E-4,6.6587585E-5,-3.6969644E-4,1.515182E-3,-1.2741289E-4,3.290856E-4,8.3686184E-4,2.2153126E-3,1.614862E-3,-1.8663763E-4,1.1042289E-3],"split_indices":[1,8,0,6,1,2,8,2,7,7,8,6,8,8,8,0,0,0,0,0,0,0,0,0,0,0,0,0,0,0,0],"split_type":[0,0,0,0,0,0,0,0,0,0,0,0,0,0,0,0,0,0,0,0,0,0,0,0,0,0,0,0,0,0,0],"sum_hessian":[1.4688E4,1.2517E4,2.171E3,7.951E3,4.566E3,1.56E3,6.11E2,5.693E3,2.258E3,3.07E3,1.496E3,5.51E2,1.009E3,4.02E2,2.09E2,1.7E3,3.993E3,1.598E3,6.6E2,2.172E3,8.98E2,4.29E2,1.067E3,5.02E2,4.9E1,4.5E2,5.59E2,3.05E2,9.7E1,5.5E1,1.54E2],"tree_param":{"num_deleted":"0","num_feature":"9","num_nodes":"31","size_leaf_vector":"1"}},{"base_weights":[-5.3720127E-5,-6.2818E-3,3.6058165E-2,2.0993087E-3,-1.9732622E-2,3.2913826E-2,7.030582E-2,9.207844E-3,-1.5304629E-2,-2.5135763E-2,-5.7964246E-3,3.829631E-2,1.4986574E-2,1.2187923E-2,7.155743E-2,7.6157134E-4,6.787135E-5,-7.1894005E-4,1.5559359E-4,-9.965631E-4,-6.556645E-4,-5.6085363E-4,6.100301E-4,1.007497E-3,1.791847E-3,-2.0024083E-4,2.051094E-3,-1.0937981E-3,1.0039461E-3,1.830539E-3,2.2905204E-3],"categories":[],"categories_nodes":[],"categories_segments":[],"categories_sizes":[],"default_left":[0,0,0,0,0,0,0,0,0,0,0,0,0,0,0,0,0,0,0,0,0,0,0,0,0,0,0,0,0,0,0],"id":14,"left_children":[1,3,5,7,9,11,13,15,17,19,21,23,25,27,29,-1,-1,-1,-1,-1,-1,-1,-1,-1,-1,-1,-1,-1,-1,-1,-1],"loss_changes":[3.288827E0,1.406045E0,2.293191E-1,9.509023E-1,3.6038685E-1,1.8971062E-1,1.2221277E-2,6.131065E-1,3.9566827E-1,9.07495E-2,4.5169383E-1,1.5112567E-1,5.289076E-1,6.3955174E-3,4.232466E-3,0E0,0E0,0E0,0E0,0E0,0E0,0E0,0E0,0E0,0E0,0E0,0E0,0E0,0E0,0E0,0E0],"parents":[2147483647,0,0,1,1,2,2,3,3,4,4,5,5,6,6,7,7,8,8,9,9,10,10,11,11,12,12,13,13,14,14],"right_children":[2,4,6,8,10,12,14,16,18,20,22,24,26,28,30,-1,-1,-1,-1,-1,-1,-1,-1,-1,-1,-1,-1,-1,-1,-1,-1],"split_conditions":[2.5881904E-1,4.6E1,8.660254E-1,1.8E1,1E0,1.1E1,2.25E0,-4.3388373E-1,1E0,-8.660254E-1,-5E-1,1E0,1E0,1E0,6E0,7.6157134E-4,6.787135E-5,-7.1894005E-4,1.5559359E-4,-9.965631E-4,-6.556645E-4,-5.6085363E-4,6.100301E-4,1.007497E-3,1.791847E-3,-2.0024083E-4,2.051094E-3,-1.0937981E-3,1.0039461E-3,1.830539E-3,2.2905204E-3],"split_indices":[1,8,1,6,5,4,8,2,7,1,1,5,7,7,6,0,0,0,0,0,0,0,0,0,0,0,0,0,0,0,0],"split_type":[0,0,0,0,0,0,0,0,0,0,0,0,0,0,0,0,0,0,0,0,0,0,0,0,0,0,0,0,0,0,0],"sum_hessian":[1.4621E4,1.2471E4,2.15E3,7.684E3,4.787E3,1.971E3,1.79E2,5.456E3,2.228E3,3.449E3,1.338E3,1.515E3,4.56E2,4E0,1.75E2,1.638E3,3.818E3,1.566E3,6.62E2,9.93E2,2.456E3,8.96E2,4.42E2,1.244E3,2.71E2,3.25E2,1.31E2,1E0,3E0,5.9E1,1.16E2],"tree_param":{"num_deleted":"0","num_feature":"9","num_nodes":"31","size_leaf_vector":"1"}},{"base_weights":[2.1358987E-6,9.230577E-3,-9.993478E-3,1.3997886E-2,-8.28162E-3,-1.3545775E-2,1.9911679E-2,2.9490568E-2,5.3485665E-3,-1.6455319E-2,1.0265342E-2,-6.794423E-3,-2.5145434E-2,3.1278655E-2,-3.564792E-2,1.6770371E-3,5.6241837E-4,4.3752903E-4,-5.6406192E-5,-6.9879956E-4,1.1061459E-4,-1.0408884E-3,6.368361E-4,-4.1408173E-4,4.4026392E-4,-1.2106914E-3,-6.9778785E-4,1.3819541E-3,5.60624E-4,-1.52021E-3,-5.0696346E-4],"categories":[],"categories_nodes":[],"categories_segments":[],"categories_sizes":[],"default_left":[0,0,0,0,0,0,0,0,0,0,0,0,0,0,0,0,0,0,0,0,0,0,0,0,0,0,0,0,0,0,0],"id":15,"left_children":[1,3,5,7,9,11,13,15,17,19,21,23,25,27,29,-1,-1,-1,-1,-1,-1,-1,-1,-1,-1,-1,-1,-1,-1,-1,-1],"loss_changes":[1.3475915E0,6.3427603E-1,7.4527484E-1,7.999631E-1,2.4666607E-1,4.9077582E-1,4.7161573E-1,6.0586643E-1,2.5593007E-1,1.5558782E-1,2.4619725E-1,5.966555E-1,6.5209866E-2,1.14384174E-1,3.4922093E-2,0E0,0E0,0E0,0E0,0E0,0E0,0E0,0E0,0E0,0E0,0E0,0E0,0E0,0E0,0E0,0E0],"parents":[2147483647,0,0,1,1,2,2,3,3,4,4,5,5,6,6,7,7,8,8,9,9,10,10,11,11,12,12,13,13,14,14],"right_children":[2,4,6,8,10,12,14,16,18,20,22,24,26,28,30,-1,-1,-1,-1,-1,-1,-1,-1,-1,-1,-1,-1,-1,-1,-1,-1],"split_conditions":[-2.5881904E-1,1.705E2,8.660254E-1,-4.3388373E-1,1E0,4.6E1,1.2625E2,1.2E1,1.5E1,1E0,9E0,1.125E1,9E0,2.475E1,1.6233333E2,1.6770371E-3,5.6241837E-4,4.3752903E-4,-5.6406192E-5,-6.9879956E-4,1.1061459E-4,-1.0408884E-3,6.368361E-4,-4.1408173E-4,4.4026392E-4,-1.2106914E-3,-6.9778785E-4,1.3819541E-3,5.60624E-4,-1.52021E-3,-5.0696346E-4],"split_indices":[0,8,0,2,7,8,8,6,6,5,4,8,4,8,8,0,0,0,0,0,0,0,0,0,0,0,0,0,0,0,0],"split_type":[0,0,0,0,0,0,0,0,0,0,0,0,0,0,0,0,0,0,0,0,0,0,0,0,0,0,0,0,0,0,0],"sum_hessian":[1.4607E4,7.595E3,7.012E3,5.97E3,1.625E3,6.268E3,7.44E2,2.138E3,3.832E3,1.128E3,4.97E2,3.963E3,2.305E3,6.18E2,1.26E2,6.17E2,1.521E3,1.682E3,2.15E3,8.42E2,2.86E2,9.7E1,4E2,2.988E3,9.75E2,2.52E2,2.053E3,2.83E2,3.35E2,6.9E1,5.7E1],"tree_param":{"num_deleted":"0","num_feature":"9","num_nodes":"31","size_leaf_vector":"1"}},{"base_weights":[-1.1566943E-4,8.534834E-3,-9.538989E-3,1.3873124E-2,-5.8418475E-3,-1.3385488E-2,2.2424957E-2,2.4517303E-2,4.1425005E-3,-3.0021941E-2,-2.1592833E-3,-6.522822E-3,-2.5328616E-2,3.3874754E-2,-3.4275036E-2,9.976889E-4,-1.1539683E-4,2.3483591E-4,-2.431784E-4,-4.9142033E-4,-1.0605546E-3,-2.8572557E-4,5.066134E-4,-4.0664492E-4,4.4495382E-4,-4.3858468E-4,-8.3733693E-4,1.4393736E-3,6.37474E-4,-5.581724E-4,-1.5360346E-3],"categories":[],"categories_nodes":[],"categories_segments":[],"categories_sizes":[],"default_left":[0,0,0,0,0,0,0,0,0,0,0,0,0,0,0,0,0,0,0,0,0,0,0,0,0,0,0,0,0,0,0],"id":16,"left_children":[1,3,5,7,9,11,13,15,17,19,21,23,25,27,29,-1,-1,-1,-1,-1,-1,-1,-1,-1,-1,-1,-1,-1,-1,-1,-1],"loss_changes":[1.1838634E0,5.812084E-1,8.549206E-1,5.718368E-1,1.8256597E-1,5.0840724E-1,4.86116E-1,6.5376544E-1,1.3033742E-1,1.9124314E-2,2.4999036E-1,5.921548E-1,6.2208652E-2,1.0974401E-1,3.246513E-2,0E0,0E0,0E0,0E0,0E0,0E0,0E0,0E0,0E0,0E0,0E0,0E0,0E0,0E0,0E0,0E0],"parents":[2147483647,0,0,1,1,2,2,3,3,4,4,5,5,6,6,7,7,8,8,9,9,10,10,11,11,12,12,13,13,14,14],"right_children":[2,4,6,8,10,12,14,16,18,20,22,24,26,28,30,-1,-1,-1,-1,-1,-1,-1,-1,-1,-1,-1,-1,-1,-1,-1,-1],"split_conditions":[-2.5881904E-1,1.48E2,8.660254E-1,0E0,9E0,4.6E1,1.2625E2,1.8E1,1.1E1,2.135E2,1E0,1.125E1,1.2246469E-16,2.475E1,1E0,9.976889E-4,-1.1539683E-4,2.3483591E-4,-2.431784E-4,-4.9142033E-4,-1.0605546E-3,-2.8572557E-4,5.066134E-4,-4.0664492E-4,4.4495382E-4,-4.3858468E-4,-8.3733693E-4,1.4393736E-3,6.37474E-4,-5.581724E-4,-1.5360346E-3],"split_indices":[0,8,0,2,4,8,8,6,4,8,7,8,0,8,3,0,0,0,0,0,0,0,0,0,0,0,0,0,0,0,0],"split_type":[0,0,0,0,0,0,0,0,0,0,0,0,0,0,0,0,0,0,0,0,0,0,0,0,0,0,0,0,0,0,0],"sum_hessian":[1.4521E4,7.571E3,6.95E3,5.521E3,2.05E3,6.204E3,7.46E2,2.636E3,2.885E3,2.7E2,1.78E3,3.941E3,2.263E3,6.21E2,1.25E2,2.015E3,6.21E2,2.218E3,6.67E2,7.7E1,1.93E2,1.284E3,4.96E2,2.965E3,9.76E2,4.41E2,1.822E3,2.92E2,3.29E2,6.6E1,5.9E1],"tree_param":{"num_deleted":"0","num_feature":"9","num_nodes":"31","size_leaf_vector":"1"}},{"base_weights":[2.2036908E-4,-5.6949556E-3,3.450484E-2,-1.0242134E-2,3.9058186E-3,2.7931653E-2,5.0769463E-2,-2.8972924E-3,-1.4832457E-2,-2.9996238E-4,2.353123E-2,3.7481062E-2,1.6076338E-2,4.3379366E-2,6.771197E-2,6.216509E-4,-1.5890226E-4,-3.1161416E-4,-7.5928593E-4,-1.3293688E-4,5.8178813E-4,1.3958396E-3,-1.0751647E-4,9.525048E-4,2.0458824E-3,7.5674575E-4,2.4110203E-4,9.0269314E-4,1.6832035E-3,2.408632E-3,1.889178E-3],"categories":[],"categories_nodes":[],"categories_segments":[],"categories_sizes":[],"default_left":[0,0,0,0,0,0,0,0,0,0,0,0,0,0,0,0,0,0,0,0,0,0,0,0,0,0,0,0,0,0,0],"id":17,"left_children":[1,3,5,7,9,11,13,15,17,19,21,23,25,27,29,-1,-1,-1,-1,-1,-1,-1,-1,-1,-1,-1,-1,-1,-1,-1,-1],"loss_changes":[2.9507885E0,5.417727E-1,2.2747707E-1,2.8387266E-1,3.2925987E-1,1.7227101E-1,7.406497E-2,1.837289E-1,2.4108326E-1,2.674238E-1,4.3915278E-1,1.4657569E-1,5.0032258E-2,7.121205E-2,5.9702396E-3,0E0,0E0,0E0,0E0,0E0,0E0,0E0,0E0,0E0,0E0,0E0,0E0,0E0,0E0,0E0,0E0],"parents":[2147483647,0,0,1,1,2,2,3,3,4,4,5,5,6,6,7,7,8,8,9,9,10,10,11,11,12,12,13,13,14,14],"right_children":[2,4,6,8,10,12,14,16,18,20,22,24,26,28,30,-1,-1,-1,-1,-1,-1,-1,-1,-1,-1,-1,-1,-1,-1,-1,-1],"split_conditions":[2.5881904E-1,-5E-1,-7.0710677E-1,1.2246469E-16,1E0,1E1,-5E-1,4E0,1.7E1,-7.0710677E-1,1E1,1E0,0E0,8E0,-2.2252093E-1,6.216509E-4,-1.5890226E-4,-3.1161416E-4,-7.5928593E-4,-1.3293688E-4,5.8178813E-4,1.3958396E-3,-1.0751647E-4,9.525048E-4,2.0458824E-3,7.5674575E-4,2.4110203E-4,9.0269314E-4,1.6832035E-3,2.408632E-3,1.889178E-3],"split_indices":[1,1,0,0,5,4,0,6,6,0,4,5,2,6,3,0,0,0,0,0,0,0,0,0,0,0,0,0,0,0,0],"split_type":[0,0,0,0,0,0,0,0,0,0,0,0,0,0,0,0,0,0,0,0,0,0,0,0,0,0,0,0,0,0,0],"sum_hessian":[1.4548E4,1.2408E4,2.14E3,8.42E3,3.988E3,1.526E3,6.14E2,3.239E3,5.181E3,3.285E3,7.03E2,8.44E2,6.82E2,4.3E2,1.84E2,2.98E2,2.941E3,3.639E3,1.542E3,2.716E3,5.69E2,3.8E2,3.23E2,7.13E2,1.31E2,3.18E2,3.64E2,2.12E2,2.18E2,4.6E1,1.38E2],"tree_param":{"num_deleted":"0","num_feature":"9","num_nodes":"31","size_leaf_vector":"1"}},{"base_weights":[-1.2893212E-4,8.567063E-3,-9.510465E-3,1.28398305E-2,-6.681516E-3,-1.2916461E-2,1.972299E-2,2.3723936E-2,3.0466313E-3,-1.3827308E-2,9.043803E-3,-6.810812E-3,-2.3450108E-2,3.0397194E-2,-3.2951877E-2,1.3957025E-3,4.3607378E-4,2.1944784E-4,-3.2144066E-4,-2.475435E-4,-9.7252295E-4,-4.3863227E-4,1.0786763E-3,-4.1432702E-4,4.4910706E-4,-7.864026E-4,-3.7181942E-4,1.1447527E-3,2.1353045E-4,-3.8223845E-4,-1.5423537E-3],"categories":[],"categories_nodes":[],"categories_segments":[],"categories_sizes":[],"default_left":[0,0,0,0,0,0,0,0,0,0,0,0,0,0,0,0,0,0,0,0,0,0,0,0,0,0,0,0,0,0,0],"id":18,"left_children":[1,3,5,7,9,11,13,15,17,19,21,23,25,27,29,-1,-1,-1,-1,-1,-1,-1,-1,-1,-1,-1,-1,-1,-1,-1,-1],"loss_changes":[1.2003939E0,4.975989E-1,7.050042E-1,6.357383E-1,1.8800747E-1,4.0759587E-1,4.165134E-1,5.9111845E-1,1.8457256E-1,1.1893678E-1,3.3360922E-1,6.123709E-1,7.073796E-2,1.1084515E-1,4.5980677E-2,0E0,0E0,0E0,0E0,0E0,0E0,0E0,0E0,0E0,0E0,0E0,0E0,0E0,0E0,0E0,0E0],"parents":[2147483647,0,0,1,1,2,2,3,3,4,4,5,5,6,6,7,7,8,8,9,9,10,10,11,11,12,12,13,13,14,14],"right_children":[2,4,6,8,10,12,14,16,18,20,22,24,26,28,30,-1,-1,-1,-1,-1,-1,-1,-1,-1,-1,-1,-1,-1,-1,-1,-1],"split_conditions":[-2.5881904E-1,1.67E2,8.660254E-1,0E0,1E0,4.6E1,1.2625E2,1.2E1,1.1E1,1.1E1,1E1,1.125E1,7.0710677E-1,1.7E1,1E0,1.3957025E-3,4.3607378E-4,2.1944784E-4,-3.2144066E-4,-2.475435E-4,-9.7252295E-4,-4.3863227E-4,1.0786763E-3,-4.1432702E-4,4.4910706E-4,-7.864026E-4,-3.7181942E-4,1.1447527E-3,2.1353045E-4,-3.8223845E-4,-1.5423537E-3],"split_indices":[0,8,0,2,7,8,8,6,4,4,4,8,0,6,3,0,0,0,0,0,0,0,0,0,0,0,0,0,0,0,0],"split_type":[0,0,0,0,0,0,0,0,0,0,0,0,0,0,0,0,0,0,0,0,0,0,0,0,0,0,0,0,0,0,0],"sum_hessian":[1.4712E4,7.635E3,7.077E3,5.964E3,1.671E3,6.339E3,7.38E2,2.824E3,3.14E3,1.149E3,5.22E2,4.014E3,2.325E3,6.14E2,1.24E2,8.1E2,2.014E3,2.397E3,7.43E2,8.85E2,2.64E2,2.78E2,2.44E2,3.038E3,9.76E2,1.859E3,4.66E2,4.6E2,1.54E2,6E1,6.4E1],"tree_param":{"num_deleted":"0","num_feature":"9","num_nodes":"31","size_leaf_vector":"1"}},{"base_weights":[3.7087037E-4,-5.2600927E-3,3.289558E-2,-9.969964E-3,6.030651E-3,2.9877357E-2,1.9586864E-3,-4.4413554E-3,-3.1000419E-2,-2.2653525E-3,3.553838E-2,3.4858678E-2,1.334894E-2,8.024972E-4,-2.2694122E-4,-9.866555E-4,1.2657112E-4,3.5879068E-4,-2.9956925E-4,-9.3119475E-4,1.2756569E-3,1.234531E-3,6.463926E-4,-2.2136339E-4,1.8189371E-3],"categories":[],"categories_nodes":[],"categories_segments":[],"categories_sizes":[],"default_left":[0,0,0,0,0,0,0,0,0,0,0,0,0,0,0,0,0,0,0,0,0,0,0,0,0],"id":19,"left_children":[1,3,5,7,9,11,-1,13,15,17,19,21,23,-1,-1,-1,-1,-1,-1,-1,-1,-1,-1,-1,-1],"loss_changes":[2.6768436E0,6.6260415E-1,2.0894408E-1,1.0221007E0,8.979931E-1,1.6214311E-1,0E0,6.785469E-1,1.2182987E-1,3.1464803E-1,3.7560463E-1,1.2618566E-1,4.5029232E-1,0E0,0E0,0E0,0E0,0E0,0E0,0E0,0E0,0E0,0E0,0E0,0E0],"parents":[2147483647,0,0,1,1,2,2,3,3,4,4,5,5,7,7,8,8,9,9,10,10,11,11,12,12],"right_children":[2,4,6,8,10,12,-1,14,16,18,20,22,24,-1,-1,-1,-1,-1,-1,-1,-1,-1,-1,-1,-1],"split_conditions":[2.5881904E-1,1E0,-5E-1,1.1E1,1.1E1,1.1E1,1.9586864E-3,4E0,8.660254E-1,0E0,4E0,4.3388373E-1,1E0,8.024972E-4,-2.2694122E-4,-9.866555E-4,1.2657112E-4,3.5879068E-4,-2.9956925E-4,-9.3119475E-4,1.2756569E-3,1.234531E-3,6.463926E-4,-2.2136339E-4,1.8189371E-3],"split_indices":[1,7,0,4,4,4,0,6,0,2,6,2,7,0,0,0,0,0,0,0,0,0,0,0,0],"split_type":[0,0,0,0,0,0,0,0,0,0,0,0,0,0,0,0,0,0,0,0,0,0,0,0,0],"sum_hessian":[1.4614E4,1.2458E4,2.156E3,8.791E3,3.667E3,1.974E3,1.82E2,6.962E3,1.829E3,2.863E3,8.04E2,1.516E3,4.58E2,6.33E2,6.329E3,1.736E3,9.3E1,1.007E3,1.856E3,7.6E1,7.28E2,1.028E3,4.88E2,3.19E2,1.39E2],"tree_param":{"num_deleted":"0","num_feature":"9","num_nodes":"25","size_leaf_vector":"1"}},{"base_weights":[6.5956476E-5,-5.4625142E-3,3.1704888E-2,-9.919245E-3,3.9970814E-3,3.4183312E-2,-6.188974E-3,-1.4358436E-2,9.551129E-4,-2.1928757E-4,2.4112357E-2,3.1304903E-2,6.3158125E-2,1.2093158E-3,-1.3816921E-3,-2.7787482E-4,-1.0442084E-3,-1.9888651E-4,8.889826E-4,1.0808866E-4,-3.1470743E-4,1.3500161E-3,-2.0581105E-5,1.2452236E-3,6.4213655E-4,1.962148E-3,1.1211418E-3,-3.2846734E-4,9.812078E-4],"categories":[],"categories_nodes":[],"categories_segments":[],"categories_sizes":[],"default_left":[0,0,0,0,0,0,0,0,0,0,0,0,0,0,0,0,0,0,0,0,0,0,0,0,0,0,0,0,0],"id":20,"left_children":[1,3,5,7,9,11,13,15,17,19,21,23,25,27,-1,-1,-1,-1,-1,-1,-1,-1,-1,-1,-1,-1,-1,-1,-1],"loss_changes":[2.5506077E0,5.233576E-1,2.0391774E-1,4.0734422E-1,3.372234E-1,1.6782784E-1,3.9579105E-2,6.240705E-1,5.3244406E-1,1.2911844E-1,3.5692835E-1,1.8638194E-1,8.158326E-3,4.401499E-2,0E0,0E0,0E0,0E0,0E0,0E0,0E0,0E0,0E0,0E0,0E0,0E0,0E0,0E0,0E0],"parents":[2147483647,0,0,1,1,2,2,3,3,4,4,5,5,6,6,7,7,8,8,9,9,10,10,11,11,12,12,13,13],"right_children":[2,4,6,8,10,12,14,16,18,20,22,24,26,28,-1,-1,-1,-1,-1,-1,-1,-1,-1,-1,-1,-1,-1,-1,-1],"split_conditions":[2.5881904E-1,-5E-1,1.9E1,1E0,1E0,8.660254E-1,1E0,1.1E1,1.1E1,1.7E1,1E1,0E0,8E0,1E0,-1.3816921E-3,-2.7787482E-4,-1.0442084E-3,-1.9888651E-4,8.889826E-4,1.0808866E-4,-3.1470743E-4,1.3500161E-3,-2.0581105E-5,1.2452236E-3,6.4213655E-4,1.962148E-3,1.1211418E-3,-3.2846734E-4,9.812078E-4],"split_indices":[1,1,6,7,5,1,3,4,4,6,4,2,6,7,0,0,0,0,0,0,0,0,0,0,0,0,0,0,0],"split_type":[0,0,0,0,0,0,0,0,0,0,0,0,0,0,0,0,0,0,0,0,0,0,0,0,0,0,0,0,0],"sum_hessian":[1.458E4,1.2412E4,2.168E3,8.437E3,3.975E3,2.035E3,1.33E2,5.991E3,2.446E3,3.287E3,6.88E2,1.853E3,1.82E2,1.13E2,2E1,4.797E3,1.194E3,1.935E3,5.11E2,2.396E3,8.91E2,3.73E2,3.15E2,9.11E2,9.42E2,1.66E2,1.6E1,8.2E1,3.1E1],"tree_param":{"num_deleted":"0","num_feature":"9","num_nodes":"29","size_leaf_vector":"1"}},{"base_weights":[-2.2147418E-4,4.301666E-3,-1.4946713E-2,9.0652297E-4,2.7482893E-2,1.7244101E-4,-2.2325672E-2,-4.58592E-3,1.4037895E-2,3.7279204E-2,-1.12875495E-2,-5.54965E-3,2.0406721E-2,-2.660037E-2,-1.17915375E-2,-2.5939223E-6,-6.208842E-4,1.6553163E-4,1.4248275E-3,4.5654856E-4,1.5278325E-3,-7.984045E-4,3.4999617E-4,-4.5567498E-4,3.9978407E-4,3.2884767E-4,2.1222562E-3,-9.2616293E-4,-3.6460944E-4,-6.790193E-4,9.672759E-4],"categories":[],"categories_nodes":[],"categories_segments":[],"categories_sizes":[],"default_left":[0,0,0,0,0,0,0,0,0,0,0,0,0,0,0,0,0,0,0,0,0,0,0,0,0,0,0,0,0,0,0],"id":21,"left_children":[1,3,5,7,9,11,13,15,17,19,21,23,25,27,29,-1,-1,-1,-1,-1,-1,-1,-1,-1,-1,-1,-1,-1,-1,-1,-1],"loss_changes":[9.7048926E-1,8.7728393E-1,3.8199764E-1,7.013914E-1,5.412663E-1,1.3025267E-1,1.0330081E-1,4.97043E-1,8.1727266E-1,3.4157503E-1,1.01626836E-1,1.5977558E-1,1.1712926E-1,1.00586414E-1,3.187026E-1,0E0,0E0,0E0,0E0,0E0,0E0,0E0,0E0,0E0,0E0,0E0,0E0,0E0,0E0,0E0,0E0],"parents":[2147483647,0,0,1,1,2,2,3,3,4,4,5,5,6,6,7,7,8,8,9,9,10,10,11,11,12,12,13,13,14,14],"right_children":[2,4,6,8,10,12,14,16,18,20,22,24,26,28,30,-1,-1,-1,-1,-1,-1,-1,-1,-1,-1,-1,-1,-1,-1,-1,-1],"split_conditions":[1.605E2,1E0,-7.0710677E-1,1E0,1.1E1,1E0,1E0,1.1E1,1.1E1,6.234898E-1,1E0,1E0,1E0,7.818315E-1,1.1E1,-2.5939223E-6,-6.208842E-4,1.6553163E-4,1.4248275E-3,4.5654856E-4,1.5278325E-3,-7.984045E-4,3.4999617E-4,-4.5567498E-4,3.9978407E-4,3.2884767E-4,2.1222562E-3,-9.2616293E-4,-3.6460944E-4,-6.790193E-4,9.672759E-4],"split_indices":[8,5,0,7,4,5,7,4,4,3,7,7,3,2,4,0,0,0,0,0,0,0,0,0,0,0,0,0,0,0,0],"split_type":[0,0,0,0,0,0,0,0,0,0,0,0,0,0,0,0,0,0,0,0,0,0,0,0,0,0,0,0,0,0,0],"sum_hessian":[1.4569E4,1.1146E4,3.423E3,9.723E3,1.423E3,1.123E3,2.3E3,6.856E3,2.867E3,1.136E3,2.87E2,8.76E2,2.47E2,1.635E3,6.65E2,5.36E3,1.496E3,2.286E3,5.81E2,4.35E2,7.01E2,1.72E2,1.15E2,5.8E2,2.96E2,2.09E2,3.8E1,1.261E3,3.74E2,5.34E2,1.31E2],"tree_param":{"num_deleted":"0","num_feature":"9","num_nodes":"31","size_leaf_vector":"1"}},{"base_weights":[-4.21531E-5,7.0296456E-3,-1.0392786E-2,1.3970929E-2,-4.3057655E-3,-1.4102091E-2,1.6703414E-2,2.0660246E-2,-3.1797362E-3,2.921872E-3,-1.3502505E-2,-7.728497E-3,-2.5647024E-2,2.7118756E-2,-3.481814E-2,1.0046123E-3,2.6993762E-4,-3.3675143E-4,4.5656998E-4,-1.05030485E-4,7.169256E-4,-1.3069248E-4,-7.40043E-4,-4.3025587E-4,4.6620824E-4,-9.415975E-4,-6.0637307E-4,1.2724316E-3,4.2484523E-4,-6.1420555E-4,-1.47906E-3],"categories":[],"categories_nodes":[],"categories_segments":[],"categories_sizes":[],"default_left":[0,0,0,0,0,0,0,0,0,0,0,0,0,0,0,0,0,0,0,0,0,0,0,0,0,0,0,0,0,0,0],"id":22,"left_children":[1,3,5,7,9,11,13,15,17,19,21,23,25,27,29,-1,-1,-1,-1,-1,-1,-1,-1,-1,-1,-1,-1,-1,-1,-1,-1],"loss_changes":[1.0641464E0,6.796391E-1,5.933337E-1,6.146543E-1,2.1812984E-1,3.8176966E-1,3.8247716E-1,5.762212E-1,2.2279827E-1,2.4770685E-1,1.4735603E-1,5.151218E-1,5.6946397E-2,1.1672744E-1,2.3922488E-2,0E0,0E0,0E0,0E0,0E0,0E0,0E0,0E0,0E0,0E0,0E0,0E0,0E0,0E0,0E0,0E0],"parents":[2147483647,0,0,1,1,2,2,3,3,4,4,5,5,6,6,7,7,8,8,9,9,10,10,11,11,12,12,13,13,14,14],"right_children":[2,4,6,8,10,12,14,16,18,20,22,24,26,28,30,-1,-1,-1,-1,-1,-1,-1,-1,-1,-1,-1,-1,-1,-1,-1,-1],"split_conditions":[1.2246469E-16,5.175E1,8.660254E-1,1.8E1,-7.0710677E-1,4.6E1,1.2625E2,0E0,1E0,1E0,3.0775E2,1.4E1,5E-1,2.475E1,1E0,1.0046123E-3,2.6993762E-4,-3.3675143E-4,4.5656998E-4,-1.05030485E-4,7.169256E-4,-1.3069248E-4,-7.40043E-4,-4.3025587E-4,4.6620824E-4,-9.415975E-4,-6.0637307E-4,1.2724316E-3,4.2484523E-4,-6.1420555E-4,-1.47906E-3],"split_indices":[0,8,0,6,0,8,8,2,7,5,8,8,0,8,3,0,0,0,0,0,0,0,0,0,0,0,0,0,0,0,0],"split_type":[0,0,0,0,0,0,0,0,0,0,0,0,0,0,0,0,0,0,0,0,0,0,0,0,0,0,0,0,0,0,0],"sum_hessian":[1.4536E4,8.636E3,5.9E3,5.356E3,3.28E3,5.19E3,7.1E2,3.853E3,1.503E3,1.837E3,1.443E3,3.345E3,1.845E3,5.91E2,1.19E2,1.834E3,2.019E3,1.046E3,4.57E2,1.407E3,4.3E2,7.94E2,6.49E2,2.605E3,7.4E2,8.95E2,9.5E2,2.7E2,3.21E2,6.1E1,5.8E1],"tree_param":{"num_deleted":"0","num_feature":"9","num_nodes":"31","size_leaf_vector":"1"}},{"base_weights":[-1.3230643E-5,-5.473248E-3,3.1202635E-2,-9.880023E-3,5.1153423E-3,3.3599824E-2,-6.2083513E-3,-5.172065E-3,-2.7741259E-2,-2.711715E-3,3.3416584E-2,4.000053E-2,2.0702075E-2,3.480833E-3,-3.423838E-2,6.737329E-4,-2.412341E-4,-6.139778E-4,-1.0686703E-3,3.2486065E-4,-3.0099388E-4,-8.626761E-4,1.1899526E-3,1.0854471E-3,1.7362006E-3,4.945277E-4,1.8126128E-3,3.4605828E-4,-1.1706763E-3,-1.6582832E-3,6.533933E-4],"categories":[],"categories_nodes":[],"categories_segments":[],"categories_sizes":[],"default_left":[0,0,0,0,0,0,0,0,0,0,0,0,0,0,0,0,0,0,0,0,0,0,0,0,0,0,0,0,0,0,0],"id":23,"left_children":[1,3,5,7,9,11,13,15,17,19,21,23,25,27,29,-1,-1,-1,-1,-1,-1,-1,-1,-1,-1,-1,-1,-1,-1,-1,-1],"loss_changes":[2.4935255E0,5.8107996E-1,1.9553447E-1,7.3925936E-1,8.1083715E-1,1.6816139E-1,3.5968807E-2,5.519134E-1,1.0442793E-1,2.8442758E-1,3.0920917E-1,9.121132E-2,1.1308843E-1,3.43419E-2,4.127271E-2,0E0,0E0,0E0,0E0,0E0,0E0,0E0,0E0,0E0,0E0,0E0,0E0,0E0,0E0,0E0,0E0],"parents":[2147483647,0,0,1,1,2,2,3,3,4,4,5,5,6,6,7,7,8,8,9,9,10,10,11,11,12,12,13,13,14,14],"right_children":[2,4,6,8,10,12,14,16,18,20,22,24,26,28,30,-1,-1,-1,-1,-1,-1,-1,-1,-1,-1,-1,-1,-1,-1,-1,-1],"split_conditions":[2.5881904E-1,1E0,1.9E1,1.1E1,1.1E1,4.3388373E-1,1.1E1,4E0,1.5E1,0E0,4E0,1E0,8.660254E-1,1E0,1E0,6.737329E-4,-2.412341E-4,-6.139778E-4,-1.0686703E-3,3.2486065E-4,-3.0099388E-4,-8.626761E-4,1.1899526E-3,1.0854471E-3,1.7362006E-3,4.945277E-4,1.8126128E-3,3.4605828E-4,-1.1706763E-3,-1.6582832E-3,6.533933E-4],"split_indices":[1,7,6,4,4,2,4,6,6,2,6,5,1,3,7,0,0,0,0,0,0,0,0,0,0,0,0,0,0,0,0],"split_type":[0,0,0,0,0,0,0,0,0,0,0,0,0,0,0,0,0,0,0,0,0,0,0,0,0,0,0,0,0,0,0],"sum_hessian":[1.4628E4,1.2451E4,2.177E3,8.792E3,3.659E3,2.046E3,1.31E2,6.959E3,1.833E3,2.867E3,7.92E2,1.366E3,6.8E2,9.8E1,3.3E1,6.54E2,6.305E3,9.55E2,8.78E2,1.006E3,1.861E3,7.2E1,7.2E2,1.128E3,2.38E2,6.16E2,6.4E1,8.3E1,1.5E1,2.4E1,9E0],"tree_param":{"num_deleted":"0","num_feature":"9","num_nodes":"31","size_leaf_vector":"1"}},{"base_weights":[2.4276406E-4,-5.012684E-3,3.0363863E-2,1.7033418E-3,-1.5928183E-2,2.7680706E-2,5.9651546E-2,1.2735325E-2,-3.1897286E-3,-2.0837931E-2,-3.2251645E-3,3.6710404E-2,1.904958E-2,4.0044025E-2,1.9125878E-3,2.1252064E-4,1.0330296E-3,-1.455151E-4,7.030593E-4,-1.0575699E-3,-5.5807206E-4,-4.3628257E-4,6.021729E-4,9.771195E-4,1.6230097E-3,7.2581624E-4,7.62993E-5,-1.0010884E-3,1.4467504E-3],"categories":[],"categories_nodes":[],"categories_segments":[],"categories_sizes":[],"default_left":[0,0,0,0,0,0,0,0,0,0,0,0,0,0,0,0,0,0,0,0,0,0,0,0,0,0,0,0,0],"id":24,"left_children":[1,3,5,7,9,11,13,15,17,19,21,23,25,27,-1,-1,-1,-1,-1,-1,-1,-1,-1,-1,-1,-1,-1,-1,-1],"loss_changes":[2.3091145E0,9.105221E-1,1.686393E-1,4.1514888E-1,2.9499865E-1,1.541605E-1,1.2002647E-2,2.8952515E-1,2.3570827E-1,1.0929179E-1,3.4833974E-1,6.8068266E-2,8.6380064E-2,2.2029512E-2,0E0,0E0,0E0,0E0,0E0,0E0,0E0,0E0,0E0,0E0,0E0,0E0,0E0,0E0,0E0],"parents":[2147483647,0,0,1,1,2,2,3,3,4,4,5,5,6,6,7,7,8,8,9,9,10,10,11,11,12,12,13,13],"right_children":[2,4,6,8,10,12,14,16,18,20,22,24,26,28,-1,-1,-1,-1,-1,-1,-1,-1,-1,-1,-1,-1,-1,-1,-1],"split_conditions":[2.5881904E-1,4.6E1,-5E-1,-4.3388373E-1,1E0,0E0,6.25E0,1.175E1,8.660254E-1,9E0,-5E-1,1E0,1.1E1,9E0,1.9125878E-3,2.1252064E-4,1.0330296E-3,-1.455151E-4,7.030593E-4,-1.0575699E-3,-5.5807206E-4,-4.3628257E-4,6.021729E-4,9.771195E-4,1.6230097E-3,7.2581624E-4,7.62993E-5,-1.0010884E-3,1.4467504E-3],"split_indices":[1,8,0,2,5,2,8,8,0,4,1,5,4,4,0,0,0,0,0,0,0,0,0,0,0,0,0,0,0],"split_type":[0,0,0,0,0,0,0,0,0,0,0,0,0,0,0,0,0,0,0,0,0,0,0,0,0,0,0,0,0],"sum_hessian":[1.4585E4,1.2419E4,2.166E3,7.689E3,4.73E3,1.986E3,1.8E2,2.362E3,5.327E3,3.411E3,1.319E3,9.69E2,1.017E3,3.3E1,1.47E2,1.875E3,4.87E2,5.015E3,3.12E2,4.56E2,2.955E3,8.88E2,4.31E2,7.85E2,1.84E2,7.75E2,2.42E2,3E0,3E1],"tree_param":{"num_deleted":"0","num_feature":"9","num_nodes":"29","size_leaf_vector":"1"}},{"base_weights":[1.6512128E-4,5.0145346E-3,-1.2592087E-2,9.885519E-3,-1.0712957E-2,2.0579484E-5,-1.975223E-2,2.4299126E-2,2.8588227E-3,-3.8209672E-3,-2.1416629E-2,-7.282928E-3,2.4199883E-2,-1.5209738E-2,-2.4467062E-2,1.9005985E-3,4.788433E-4,-2.2954207E-5,8.4859726E-4,-1.8175463E-4,5.3395814E-4,-4.966134E-4,-9.995295E-4,-1.0808684E-3,-6.500645E-5,1.3519693E-3,1.2781964E-5,5.8773985E-6,-6.1224494E-4,-8.450911E-4,-3.213574E-4],"categories":[],"categories_nodes":[],"categories_segments":[],"categories_sizes":[],"default_left":[0,0,0,0,0,0,0,0,0,0,0,0,0,0,0,0,0,0,0,0,0,0,0,0,0,0,0,0,0,0,0],"id":25,"left_children":[1,3,5,7,9,11,13,15,17,19,21,23,25,27,29,-1,-1,-1,-1,-1,-1,-1,-1,-1,-1,-1,-1,-1,-1,-1,-1],"loss_changes":[9.0248746E-1,8.0985636E-1,3.6285996E-1,8.173617E-1,1.8434218E-1,2.5729668E-1,5.4519832E-2,8.602567E-1,5.0011563E-1,7.3733404E-2,5.6106E-2,1.6448876E-1,1.6764872E-1,1.0475534E-1,6.366688E-2,0E0,0E0,0E0,0E0,0E0,0E0,0E0,0E0,0E0,0E0,0E0,0E0,0E0,0E0,0E0,0E0],"parents":[2147483647,0,0,1,1,2,2,3,3,4,4,5,5,6,6,7,7,8,8,9,9,10,10,11,11,12,12,13,13,14,14],"right_children":[2,4,6,8,10,12,14,16,18,20,22,24,26,28,30,-1,-1,-1,-1,-1,-1,-1,-1,-1,-1,-1,-1,-1,-1,-1,-1],"split_conditions":[1.3366667E2,1.8E1,-7.0710677E-1,-4.3388373E-1,1.2246469E-16,1E0,3.24E2,4E0,1E0,1E0,1E0,9E0,1E1,-2.5881904E-1,1.1E1,1.9005985E-3,4.788433E-4,-2.2954207E-5,8.4859726E-4,-1.8175463E-4,5.3395814E-4,-4.966134E-4,-9.995295E-4,-1.0808684E-3,-6.500645E-5,1.3519693E-3,1.2781964E-5,5.8773985E-6,-6.1224494E-4,-8.450911E-4,-3.213574E-4],"split_indices":[8,6,0,2,0,5,8,6,5,5,3,4,4,0,4,0,0,0,0,0,0,0,0,0,0,0,0,0,0,0,0],"split_type":[0,0,0,0,0,0,0,0,0,0,0,0,0,0,0,0,0,0,0,0,0,0,0,0,0,0,0,0,0,0,0],"sum_hessian":[1.4586E4,1.0569E4,4.017E3,8.07E3,2.499E3,1.455E3,2.562E3,2.644E3,5.426E3,1.521E3,9.78E2,1.118E3,3.37E2,1.307E3,1.255E3,4.64E2,2.18E3,4.75E3,6.76E2,1.379E3,1.42E2,6.96E2,2.82E2,1.68E2,9.5E2,1.79E2,1.58E2,3.3E2,9.77E2,9.88E2,2.67E2],"tree_param":{"num_deleted":"0","num_feature":"9","num_nodes":"31","size_leaf_vector":"1"}},{"base_weights":[-8.1025835E-5,-4.7763E-3,2.7447682E-2,7.412144E-4,-1.5907722E-2,2.2008287E-2,4.2177353E-2,-2.5319462E-3,2.5934894E-2,-1.9675482E-2,-7.021736E-3,3.3214215E-2,1.0931679E-2,5.998476E-2,2.2996238E-2,-2.4763934E-4,3.3479996E-4,1.2733814E-3,1.4640711E-5,-5.55803E-4,-1.0814535E-3,-4.2298637E-4,2.751643E-4,7.6572516E-4,1.5867233E-3,2.4375493E-4,9.279348E-4,1.0200344E-3,1.9035514E-3,9.927126E-4,4.451296E-4],"categories":[],"categories_nodes":[],"categories_segments":[],"categories_sizes":[],"default_left":[0,0,0,0,0,0,0,0,0,0,0,0,0,0,0,0,0,0,0,0,0,0,0,0,0,0,0,0,0,0,0],"id":26,"left_children":[1,3,5,7,9,11,13,15,17,19,21,23,25,27,29,-1,-1,-1,-1,-1,-1,-1,-1,-1,-1,-1,-1,-1,-1,-1,-1],"loss_changes":[1.8850543E0,7.652159E-1,1.6932774E-1,6.8706447E-1,1.3810194E-1,1.9252509E-1,1.9399619E-1,5.7788104E-1,4.024899E-1,5.3856134E-2,1.412231E-1,1.1546409E-1,4.3697543E-2,2.4507523E-2,2.232115E-2,0E0,0E0,0E0,0E0,0E0,0E0,0E0,0E0,0E0,0E0,0E0,0E0,0E0,0E0,0E0,0E0],"parents":[2147483647,0,0,1,1,2,2,3,3,4,4,5,5,6,6,7,7,8,8,9,9,10,10,11,11,12,12,13,13,14,14],"right_children":[2,4,6,8,10,12,14,16,18,20,22,24,26,28,30,-1,-1,-1,-1,-1,-1,-1,-1,-1,-1,-1,-1,-1,-1,-1,-1],"split_conditions":[2.5881904E-1,5.7E1,7.0710677E-1,1E0,1E0,0E0,3.975E1,1E0,1.6E1,5.896667E2,-5E-1,1E0,2.975E2,6.25E0,6.234898E-1,-2.4763934E-4,3.3479996E-4,1.2733814E-3,1.4640711E-5,-5.55803E-4,-1.0814535E-3,-4.2298637E-4,2.751643E-4,7.6572516E-4,1.5867233E-3,2.4375493E-4,9.279348E-4,1.0200344E-3,1.9035514E-3,9.927126E-4,4.451296E-4],"split_indices":[1,8,1,5,5,2,8,7,6,8,1,7,8,8,3,0,0,0,0,0,0,0,0,0,0,0,0,0,0,0,0],"split_type":[0,0,0,0,0,0,0,0,0,0,0,0,0,0,0,0,0,0,0,0,0,0,0,0,0,0,0,0,0,0,0],"sum_hessian":[1.4582E4,1.2458E4,2.124E3,8.33E3,4.128E3,1.553E3,5.71E2,7.373E3,9.57E2,2.898E3,1.23E3,7.71E2,7.82E2,2.95E2,2.76E2,5.2E3,2.173E3,5.8E2,3.77E2,2.71E3,1.88E2,8.56E2,3.74E2,5.56E2,2.15E2,6.87E2,9.5E1,3.6E1,2.59E2,1.22E2,1.54E2],"tree_param":{"num_deleted":"0","num_feature":"9","num_nodes":"31","size_leaf_vector":"1"}},{"base_weights":[5.163649E-4,-4.248931E-3,2.8634954E-2,1.8004888E-3,-1.475892E-2,2.2968842E-2,4.2940915E-2,7.333283E-3,-1.2251149E-2,-3.0338863E-2,-1.2631075E-2,3.237196E-2,1.1632959E-2,5.6803554E-2,2.860854E-2,6.975161E-4,2.196332E-5,-1.7690352E-4,-6.1085366E-4,-5.507805E-4,-1.0060025E-3,-5.61916E-4,-2.1379242E-4,1.0558298E-3,-1.1772268E-4,7.243771E-4,1.35637665E-5,1.0173296E-3,1.7922355E-3,1.3524735E-3,4.5711672E-4],"categories":[],"categories_nodes":[],"categories_segments":[],"categories_sizes":[],"default_left":[0,0,0,0,0,0,0,0,0,0,0,0,0,0,0,0,0,0,0,0,0,0,0,0,0,0,0,0,0,0,0],"id":27,"left_children":[1,3,5,7,9,11,13,15,17,19,21,23,25,27,29,-1,-1,-1,-1,-1,-1,-1,-1,-1,-1,-1,-1,-1,-1,-1,-1],"loss_changes":[1.9658049E0,7.9762936E-1,1.7134547E-1,6.191718E-1,1.5155113E-1,1.6217726E-1,1.179831E-1,6.003675E-1,1.15840346E-1,2.0432413E-2,1.3530982E-1,8.547115E-2,9.694336E-2,1.8485308E-2,6.4955875E-2,0E0,0E0,0E0,0E0,0E0,0E0,0E0,0E0,0E0,0E0,0E0,0E0,0E0,0E0,0E0,0E0],"parents":[2147483647,0,0,1,1,2,2,3,3,4,4,5,5,6,6,7,7,8,8,9,9,10,10,11,11,12,12,13,13,14,14],"right_children":[2,4,6,8,10,12,14,16,18,20,22,24,26,28,30,-1,-1,-1,-1,-1,-1,-1,-1,-1,-1,-1,-1,-1,-1,-1,-1],"split_conditions":[2.5881904E-1,4.95E1,-7.0710677E-1,1.8E1,9E0,1E1,3.875E1,-4.3388373E-1,1.2246469E-16,1.06666664E2,-7.0710677E-1,1.9E1,0E0,5.75E0,6.234898E-1,6.975161E-4,2.196332E-5,-1.7690352E-4,-6.1085366E-4,-5.507805E-4,-1.0060025E-3,-5.61916E-4,-2.1379242E-4,1.0558298E-3,-1.1772268E-4,7.243771E-4,1.35637665E-5,1.0173296E-3,1.7922355E-3,1.3524735E-3,4.5711672E-4],"split_indices":[1,8,0,6,4,4,8,2,0,8,1,6,2,8,3,0,0,0,0,0,0,0,0,0,0,0,0,0,0,0,0],"split_type":[0,0,0,0,0,0,0,0,0,0,0,0,0,0,0,0,0,0,0,0,0,0,0,0,0,0,0,0,0,0,0],"sum_hessian":[1.4669E4,1.2544E4,2.125E3,7.962E3,4.582E3,1.524E3,6.01E2,5.713E3,2.249E3,5.49E2,4.033E3,8.32E2,6.92E2,3.04E2,2.97E2,1.674E3,4.039E3,1.262E3,9.87E2,1.17E2,4.32E2,1.912E3,2.121E3,7.72E2,6E1,3.26E2,3.66E2,3.6E1,2.68E2,1.32E2,1.65E2],"tree_param":{"num_deleted":"0","num_feature":"9","num_nodes":"31","size_leaf_vector":"1"}},{"base_weights":[-1.96282E-4,-4.8817433E-3,2.703435E-2,-8.931015E-3,4.643348E-3,2.4554553E-2,5.3040028E-2,-4.5336885E-3,-2.5464792E-2,-2.5627213E-3,3.2221414E-2,2.0863604E-2,4.471802E-2,5.532322E-2,1.8575992E-2,-2.686449E-4,4.466055E-4,-5.7227263E-4,-9.7272353E-4,-4.4253955E-4,7.781616E-5,-8.362619E-4,1.1546214E-3,7.508781E-4,2.494823E-4,1.7007495E-3,8.291411E-4,1.2472243E-3,1.7024872E-3,-7.3108665E-4,1.7660348E-3],"categories":[],"categories_nodes":[],"categories_segments":[],"categories_sizes":[],"default_left":[0,0,0,0,0,0,0,0,0,0,0,0,0,0,0,0,0,0,0,0,0,0,0,0,0,0,0,0,0,0,0],"id":28,"left_children":[1,3,5,7,9,11,13,15,17,19,21,23,25,27,29,-1,-1,-1,-1,-1,-1,-1,-1,-1,-1,-1,-1,-1,-1,-1,-1],"loss_changes":[1.8555176E0,4.7861406E-1,1.3638127E-1,6.3292193E-1,7.35779E-1,1.4426494E-1,1.3529658E-2,5.907707E-1,8.070505E-2,1.8457069E-1,2.898978E-1,8.608776E-2,5.9990466E-2,1.0333657E-3,2.3929197E-2,0E0,0E0,0E0,0E0,0E0,0E0,0E0,0E0,0E0,0E0,0E0,0E0,0E0,0E0,0E0,0E0],"parents":[2147483647,0,0,1,1,2,2,3,3,4,4,5,5,6,6,7,7,8,8,9,9,10,10,11,11,12,12,13,13,14,14],"right_children":[2,4,6,8,10,12,14,16,18,20,22,24,26,28,30,-1,-1,-1,-1,-1,-1,-1,-1,-1,-1,-1,-1,-1,-1,-1,-1],"split_conditions":[2.5881904E-1,1E0,-5E-1,1.1E1,1.1E1,1E0,8E0,1E0,1.5E1,8E0,4E0,1.1E1,1E1,9E0,1.1E1,-2.686449E-4,4.466055E-4,-5.7227263E-4,-9.7272353E-4,-4.4253955E-4,7.781616E-5,-8.362619E-4,1.1546214E-3,7.508781E-4,2.494823E-4,1.7007495E-3,8.291411E-4,1.2472243E-3,1.7024872E-3,-7.3108665E-4,1.7660348E-3],"split_indices":[1,7,0,4,4,5,6,5,6,6,6,4,4,4,4,0,0,0,0,0,0,0,0,0,0,0,0,0,0,0,0],"split_type":[0,0,0,0,0,0,0,0,0,0,0,0,0,0,0,0,0,0,0,0,0,0,0,0,0,0,0,0,0,0,0],"sum_hessian":[1.4541E4,1.2407E4,2.134E3,8.706E3,3.701E3,1.95E3,1.84E2,6.878E3,1.828E3,2.935E3,7.66E2,1.65E3,3E2,1.72E2,1.2E1,5.603E3,1.275E3,9.55E2,8.73E2,8.72E2,2.063E3,7.2E1,6.94E2,1.238E3,4.12E2,1.75E2,1.25E2,1.9E1,1.53E2,6E0,6E0],"tree_param":{"num_deleted":"0","num_feature":"9","num_nodes":"31","size_leaf_vector":"1"}},{"base_weights":[-2.9883764E-4,6.3782753E-3,-7.5771054E-3,1.0413714E-2,-7.804454E-3,-1.0830176E-2,2.0322444E-2,1.9653544E-2,2.0110607E-3,-2.709953E-2,-4.7002314E-3,-6.3161207E-3,-1.8623896E-2,3.0456632E-2,-2.8579462E-2,7.688628E-4,-5.2668285E-5,1.6766401E-4,-2.7307234E-4,-1.101372E-3,-6.2509615E-4,3.7573038E-5,-4.4078834E-4,-3.7181927E-4,3.582657E-4,-9.886554E-4,-5.059871E-4,1.3990122E-3,5.61905E-4,-3.3853875E-4,-1.4224711E-3],"categories":[],"categories_nodes":[],"categories_segments":[],"categories_sizes":[],"default_left":[0,0,0,0,0,0,0,0,0,0,0,0,0,0,0,0,0,0,0,0,0,0,0,0,0,0,0,0,0,0,0],"id":29,"left_children":[1,3,5,7,9,11,13,15,17,19,21,23,25,27,29,-1,-1,-1,-1,-1,-1,-1,-1,-1,-1,-1,-1,-1,-1,-1,-1],"loss_changes":[7.1069425E-1,4.366014E-1,6.3526225E-1,4.6098143E-1,1.01097226E-1,2.2036344E-1,3.6314017E-1,3.6181486E-1,1.2374769E-1,1.33230835E-2,8.668555E-2,4.4070432E-1,5.7329655E-2,1.1408496E-1,4.0511936E-2,0E0,0E0,0E0,0E0,0E0,0E0,0E0,0E0,0E0,0E0,0E0,0E0,0E0,0E0,0E0,0E0],"parents":[2147483647,0,0,1,1,2,2,3,3,4,4,5,5,6,6,7,7,8,8,9,9,10,10,11,11,12,12,13,13,14,14],"right_children":[2,4,6,8,10,12,14,16,18,20,22,24,26,28,30,-1,-1,-1,-1,-1,-1,-1,-1,-1,-1,-1,-1,-1,-1,-1,-1],"split_conditions":[-2.5881904E-1,1.67E2,8.660254E-1,0E0,9E0,4.6E1,1.2625E2,1.8E1,4.475E1,6E0,-7.0710677E-1,1.125E1,9E0,9.5E0,1E0,7.688628E-4,-5.2668285E-5,1.6766401E-4,-2.7307234E-4,-1.101372E-3,-6.2509615E-4,3.7573038E-5,-4.4078834E-4,-3.7181927E-4,3.582657E-4,-9.886554E-4,-5.059871E-4,1.3990122E-3,5.61905E-4,-3.3853875E-4,-1.4224711E-3],"split_indices":[0,8,0,2,4,8,8,6,8,6,0,8,4,8,3,0,0,0,0,0,0,0,0,0,0,0,0,0,0,0,0],"split_type":[0,0,0,0,0,0,0,0,0,0,0,0,0,0,0,0,0,0,0,0,0,0,0,0,0,0,0,0,0,0,0],"sum_hessian":[1.4622E4,7.626E3,6.996E3,5.937E3,1.689E3,6.266E3,7.3E2,2.827E3,3.11E3,2.33E2,1.456E3,3.969E3,2.297E3,6.05E2,1.25E2,2.21E3,6.17E2,2.353E3,7.57E2,9E1,1.43E2,9.13E2,5.43E2,2.978E3,9.91E2,2.49E2,2.048E3,2.53E2,3.52E2,6.6E1,5.9E1],"tree_param":{"num_deleted":"0","num_feature":"9","num_nodes":"31","size_leaf_vector":"1"}},{"base_weights":[-1.4712705E-4,-4.2553707E-3,2.3622474E-2,1.9406182E-3,-1.4260489E-2,2.5847495E-2,-9.373078E-3,7.154772E-3,-1.0718884E-2,-1.9192304E-2,-1.5453001E-3,2.2542132E-2,4.3544017E-2,-2.9888162E-3,-4.88654E-2,1.3224209E-4,9.063859E-4,-5.589124E-4,2.1775877E-4,-3.0489344E-4,-6.7560864E-4,-3.4642158E-4,5.545447E-4,5.9386715E-4,1.468196E-3,1.6875057E-3,7.731534E-4,-1.722027E-4,2.3263595E-3,-1.6516055E-3,-3.568974E-4],"categories":[],"categories_nodes":[],"categories_segments":[],"categories_sizes":[],"default_left":[0,0,0,0,0,0,0,0,0,0,0,0,0,0,0,0,0,0,0,0,0,0,0,0,0,0,0,0,0,0,0],"id":30,"left_children":[1,3,5,7,9,11,13,15,17,19,21,23,25,27,29,-1,-1,-1,-1,-1,-1,-1,-1,-1,-1,-1,-1,-1,-1,-1,-1],"loss_changes":[1.4293251E0,7.736828E-1,1.5860009E-1,5.0887096E-1,2.992803E-1,1.1723375E-1,3.4395672E-2,3.4566885E-1,3.2000956E-1,1.031096E-1,2.6767138E-1,1.22648716E-1,7.01344E-2,2.6812118E-2,3.6916286E-3,0E0,0E0,0E0,0E0,0E0,0E0,0E0,0E0,0E0,0E0,0E0,0E0,0E0,0E0,0E0,0E0],"parents":[2147483647,0,0,1,1,2,2,3,3,4,4,5,5,6,6,7,7,8,8,9,9,10,10,11,11,12,12,13,13,14,14],"right_children":[2,4,6,8,10,12,14,16,18,20,22,24,26,28,30,-1,-1,-1,-1,-1,-1,-1,-1,-1,-1,-1,-1,-1,-1,-1,-1],"split_conditions":[2.5881904E-1,4.6E1,1.9E1,1.8E1,1E0,1E0,5E0,1E0,1E0,6E0,-5E-1,-5E-1,1E1,4.6666665E0,1E0,1.3224209E-4,9.063859E-4,-5.589124E-4,2.1775877E-4,-3.0489344E-4,-6.7560864E-4,-3.4642158E-4,5.545447E-4,5.9386715E-4,1.468196E-3,1.6875057E-3,7.731534E-4,-1.722027E-4,2.3263595E-3,-1.6516055E-3,-3.568974E-4],"split_indices":[1,8,6,6,5,5,8,5,7,6,1,0,4,8,7,0,0,0,0,0,0,0,0,0,0,0,0,0,0,0,0],"split_type":[0,0,0,0,0,0,0,0,0,0,0,0,0,0,0,0,0,0,0,0,0,0,0,0,0,0,0,0,0,0,0],"sum_hessian":[1.4635E4,1.2479E4,2.156E3,7.707E3,4.772E3,2.02E3,1.36E2,5.459E3,2.248E3,3.438E3,1.334E3,1.704E3,3.16E2,1.18E2,1.8E1,4.879E3,5.8E2,1.561E3,6.87E2,9.27E2,2.511E3,8.9E2,4.44E2,1.545E3,1.59E2,1.83E2,1.33E2,1.15E2,3E0,1.5E1,3E0],"tree_param":{"num_deleted":"0","num_feature":"9","num_nodes":"31","size_leaf_vector":"1"}},{"base_weights":[-4.330941E-5,-4.1332175E-3,2.3735512E-2,-7.972986E-3,4.9516503E-3,1.8723752E-2,3.66275E-2,-3.3605278E-3,-2.5621677E-2,-2.4560888E-3,3.2038707E-2,2.8050067E-2,7.684877E-3,4.6683718E-2,2.7566047E-2,-2.2781869E-4,4.5991945E-4,-8.158582E-4,3.056542E-4,2.7646552E-4,-2.5885383E-4,1.2059159E-3,2.4265908E-4,6.7261147E-4,1.7058459E-3,-7.514845E-5,9.5095125E-4,1.5392194E-3,1.0180036E-3,5.657158E-4,1.4597971E-3],"categories":[],"categories_nodes":[],"categories_segments":[],"categories_sizes":[],"default_left":[0,0,0,0,0,0,0,0,0,0,0,0,0,0,0,0,0,0,0,0,0,0,0,0,0,0,0,0,0,0,0],"id":31,"left_children":[1,3,5,7,9,11,13,15,17,19,21,23,25,27,29,-1,-1,-1,-1,-1,-1,-1,-1,-1,-1,-1,-1,-1,-1,-1,-1],"loss_changes":[1.418147E0,4.3406367E-1,1.3758302E-1,7.1187204E-1,7.41896E-1,1.5863937E-1,5.3205192E-2,5.4886734E-1,1.0238457E-1,2.0928803E-1,1.5481955E-1,1.343239E-1,1.7332229E-1,1.4883459E-2,5.7316363E-2,0E0,0E0,0E0,0E0,0E0,0E0,0E0,0E0,0E0,0E0,0E0,0E0,0E0,0E0,0E0,0E0],"parents":[2147483647,0,0,1,1,2,2,3,3,4,4,5,5,6,6,7,7,8,8,9,9,10,10,11,11,12,12,13,13,14,14],"right_children":[2,4,6,8,10,12,14,16,18,20,22,24,26,28,30,-1,-1,-1,-1,-1,-1,-1,-1,-1,-1,-1,-1,-1,-1,-1,-1],"split_conditions":[2.5881904E-1,1E0,-7.0710677E-1,1.1E1,1.1E1,1E1,6.234898E-1,1E0,8.660254E-1,0E0,1E0,1E0,1E0,1.1E1,-5E-1,-2.2781869E-4,4.5991945E-4,-8.158582E-4,3.056542E-4,2.7646552E-4,-2.5885383E-4,1.2059159E-3,2.4265908E-4,6.7261147E-4,1.7058459E-3,-7.514845E-5,9.5095125E-4,1.5392194E-3,1.0180036E-3,5.657158E-4,1.4597971E-3],"split_indices":[1,7,0,4,4,4,3,5,0,2,5,5,7,4,0,0,0,0,0,0,0,0,0,0,0,0,0,0,0,0,0],"split_type":[0,0,0,0,0,0,0,0,0,0,0,0,0,0,0,0,0,0,0,0,0,0,0,0,0,0,0,0,0,0,0],"sum_hessian":[1.458E4,1.2441E4,2.139E3,8.745E3,3.696E3,1.542E3,5.97E2,6.934E3,1.811E3,2.903E3,7.93E2,8.35E2,7.07E2,2.81E2,3.16E2,5.654E3,1.28E3,1.735E3,7.6E1,1.004E3,1.899E3,5.91E2,2.02E2,7E2,1.35E2,4.97E2,2.1E2,2.04E2,7.7E1,2.25E2,9.1E1],"tree_param":{"num_deleted":"0","num_feature":"9","num_nodes":"31","size_leaf_vector":"1"}},{"base_weights":[1.3095561E-4,-3.931125E-3,2.3641037E-2,1.5739755E-3,-1.352441E-2,1.4902655E-2,3.0716434E-2,6.717818E-3,-1.136184E-2,-2.7710808E-2,-1.1627145E-2,2.6983067E-2,3.5685701E-3,3.9611347E-2,2.3143262E-2,8.354139E-5,4.8218557E-4,-5.818218E-4,2.1681545E-4,-4.3056376E-4,-9.553193E-4,1.4561442E-4,-3.9700852E-4,1.3947686E-3,5.5386784E-4,-7.460279E-4,3.2867503E-4,4.627907E-4,1.4814889E-3,9.6589566E-4,4.598343E-4],"categories":[],"categories_nodes":[],"categories_segments":[],"categories_sizes":[],"default_left":[0,0,0,0,0,0,0,0,0,0,0,0,0,0,0,0,0,0,0,0,0,0,0,0,0,0,0,0,0,0,0],"id":32,"left_children":[1,3,5,7,9,11,13,15,17,19,21,23,25,27,29,-1,-1,-1,-1,-1,-1,-1,-1,-1,-1,-1,-1,-1,-1,-1,-1],"loss_changes":[1.3923851E0,6.565801E-1,1.3234782E-1,5.2574074E-1,1.2168503E-1,1.3175808E-1,7.897532E-2,2.0795357E-1,3.3579153E-1,2.9027075E-2,1.0596913E-1,7.660678E-2,1.0488506E-1,1.2779981E-1,4.5002192E-2,0E0,0E0,0E0,0E0,0E0,0E0,0E0,0E0,0E0,0E0,0E0,0E0,0E0,0E0,0E0,0E0],"parents":[2147483647,0,0,1,1,2,2,3,3,4,4,5,5,6,6,7,7,8,8,9,9,10,10,11,11,12,12,13,13,14,14],"right_children":[2,4,6,8,10,12,14,16,18,20,22,24,26,28,30,-1,-1,-1,-1,-1,-1,-1,-1,-1,-1,-1,-1,-1,-1,-1,-1],"split_conditions":[2.5881904E-1,4.95E1,-8.660254E-1,1.8E1,9E0,1.5E1,3.875E1,1E0,1E0,1.2625E2,-9.659258E-1,6.25E0,1.6E1,4.25E0,6.234898E-1,8.354139E-5,4.8218557E-4,-5.818218E-4,2.1681545E-4,-4.3056376E-4,-9.553193E-4,1.4561442E-4,-3.9700852E-4,1.3947686E-3,5.5386784E-4,-7.460279E-4,3.2867503E-4,4.627907E-4,1.4814889E-3,9.6589566E-4,4.598343E-4],"split_indices":[1,8,0,6,4,6,8,7,7,8,0,8,6,8,3,0,0,0,0,0,0,0,0,0,0,0,0,0,0,0,0],"split_type":[0,0,0,0,0,0,0,0,0,0,0,0,0,0,0,0,0,0,0,0,0,0,0,0,0,0,0,0,0,0,0],"sum_hessian":[1.4578E4,1.2431E4,2.147E3,7.899E3,4.532E3,9.62E2,1.185E3,5.652E3,2.247E3,5.33E2,3.999E3,4.65E2,4.97E2,5.43E2,6.42E2,3.98E3,1.672E3,1.569E3,6.78E2,1.27E2,4.06E2,3.55E2,3.644E3,1.4E2,3.25E2,1.02E2,3.95E2,1.57E2,3.86E2,2.96E2,3.46E2],"tree_param":{"num_deleted":"0","num_feature":"9","num_nodes":"31","size_leaf_vector":"1"}},{"base_weights":[-1.1411544E-4,-4.5615444E-3,2.5328843E-2,4.296614E-4,-1.4567044E-2,2.0725777E-2,3.655108E-2,1.1069678E-2,-4.263066E-3,-2.8532738E-2,-1.2580611E-2,3.1010803E-2,1.1011224E-2,4.669197E-2,1.5501137E-2,1.7108053E-3,8.859575E-5,-6.0520746E-4,-5.5052235E-5,-9.981394E-4,-6.3928106E-4,-4.2812683E-4,1.4769995E-4,1.040181E-3,-2.1896094E-4,-2.490663E-5,5.9839623E-4,-5.1771675E-4,1.4156596E-3,-5.477054E-4,8.375399E-4],"categories":[],"categories_nodes":[],"categories_segments":[],"categories_sizes":[],"default_left":[0,0,0,0,0,0,0,0,0,0,0,0,0,0,0,0,0,0,0,0,0,0,0,0,0,0,0,0,0,0,0],"id":33,"left_children":[1,3,5,7,9,11,13,15,17,19,21,23,25,27,29,-1,-1,-1,-1,-1,-1,-1,-1,-1,-1,-1,-1,-1,-1,-1,-1],"loss_changes":[1.6480025E0,6.1910635E-1,1.1118257E-1,4.1307396E-1,1.1410415E-1,1.5342683E-1,1.3354582E-1,9.4429463E-1,2.2174129E-1,1.6850233E-2,1.0699642E-1,1.0504639E-1,8.392156E-2,1.428169E-2,8.685833E-2,0E0,0E0,0E0,0E0,0E0,0E0,0E0,0E0,0E0,0E0,0E0,0E0,0E0,0E0,0E0,0E0],"parents":[2147483647,0,0,1,1,2,2,3,3,4,4,5,5,6,6,7,7,8,8,9,9,10,10,11,11,12,12,13,13,14,14],"right_children":[2,4,6,8,10,12,14,16,18,20,22,24,26,28,30,-1,-1,-1,-1,-1,-1,-1,-1,-1,-1,-1,-1,-1,-1,-1,-1],"split_conditions":[2.5881904E-1,5.7E1,7.0710677E-1,-4.3388373E-1,9E0,0E0,4.95E1,4E0,4E0,8E0,-1.8369701E-16,1.9E1,2.875E1,2.25E0,5.7E1,1.7108053E-3,8.859575E-5,-6.0520746E-4,-5.5052235E-5,-9.981394E-4,-6.3928106E-4,-4.2812683E-4,1.4769995E-4,1.040181E-3,-2.1896094E-4,-2.490663E-5,5.9839623E-4,-5.1771675E-4,1.4156596E-3,-5.477054E-4,8.375399E-4],"split_indices":[1,8,1,2,4,2,8,6,6,6,1,6,8,8,8,0,0,0,0,0,0,0,0,0,0,0,0,0,0,0,0],"split_type":[0,0,0,0,0,0,0,0,0,0,0,0,0,0,0,0,0,0,0,0,0,0,0,0,0,0,0,0,0,0,0],"sum_hessian":[1.4562E4,1.2396E4,2.166E3,8.271E3,4.125E3,1.538E3,6.28E2,2.531E3,5.74E3,5.12E2,3.613E3,7.46E2,7.92E2,4.23E2,2.05E2,3.79E2,2.152E3,7.59E2,4.981E3,3.07E2,2.05E2,3.295E3,3.18E2,6.81E2,6.5E1,3.41E2,4.51E2,3E0,4.2E2,5.5E1,1.5E2],"tree_param":{"num_deleted":"0","num_feature":"9","num_nodes":"31","size_leaf_vector":"1"}},{"base_weights":[9.255788E-5,-4.0322174E-3,2.4277546E-2,5.8191683E-4,-1.5022245E-2,2.1612346E-2,3.8274903E-2,-1.4904831E-3,3.1070493E-2,-1.9064799E-2,-5.2956813E-3,1.6458372E-2,3.1918615E-2,-2.7887486E-3,4.0130433E-2,2.787839E-4,-1.958387E-4,-1.0671655E-3,9.781782E-4,-6.76458E-4,-3.5029472E-4,-3.531873E-4,3.3028753E-4,6.988424E-4,-8.6840126E-5,7.894879E-4,1.5372778E-3,1.6080462E-3,6.353002E-4],"categories":[],"categories_nodes":[],"categories_segments":[],"categories_sizes":[],"default_left":[0,0,0,0,0,0,0,0,0,0,0,0,0,0,0,0,0,0,0,0,0,0,0,0,0,0,0,0,0],"id":34,"left_children":[1,3,5,7,9,11,13,15,17,19,21,23,25,-1,27,-1,-1,-1,-1,-1,-1,-1,-1,-1,-1,-1,-1,-1,-1],"loss_changes":[1.4480801E0,6.288568E-1,7.8074455E-2,5.5196315E-1,1.4408606E-1,9.397209E-2,8.579227E-2,4.4440228E-1,5.8053374E-2,6.640184E-2,1.1398037E-1,1.5724537E-1,6.274122E-2,0E0,8.388919E-2,0E0,0E0,0E0,0E0,0E0,0E0,0E0,0E0,0E0,0E0,0E0,0E0,0E0,0E0],"parents":[2147483647,0,0,1,1,2,2,3,3,4,4,5,5,6,6,7,7,8,8,9,9,10,10,11,11,12,12,14,14],"right_children":[2,4,6,8,10,12,14,16,18,20,22,24,26,-1,28,-1,-1,-1,-1,-1,-1,-1,-1,-1,-1,-1,-1,-1,-1],"split_conditions":[2.5881904E-1,7.45E1,1E0,8.660254E-1,1E0,1E0,2.75E0,-4.3388373E-1,1.5E0,1E0,-5E-1,1.1E1,1.1E1,-2.7887486E-3,1E1,2.787839E-4,-1.958387E-4,-1.0671655E-3,9.781782E-4,-6.76458E-4,-3.5029472E-4,-3.531873E-4,3.3028753E-4,6.988424E-4,-8.6840126E-5,7.894879E-4,1.5372778E-3,1.6080462E-3,6.353002E-4],"split_indices":[1,8,5,0,5,7,8,2,8,7,1,4,4,0,4,0,0,0,0,0,0,0,0,0,0,0,0,0,0],"split_type":[0,0,0,0,0,0,0,0,0,0,0,0,0,0,0,0,0,0,0,0,0,0,0,0,0,0,0,0,0],"sum_hessian":[1.4514E4,1.24E4,2.114E3,8.734E3,3.666E3,1.778E3,3.36E2,8.179E3,5.55E2,2.589E3,1.077E3,1.187E3,5.91E2,4E0,3.32E2,2.604E3,5.575E3,1.2E1,5.43E2,1.758E3,8.31E2,7.71E2,3.06E2,8.77E2,3.1E2,4.6E2,1.31E2,1.93E2,1.39E2],"tree_param":{"num_deleted":"0","num_feature":"9","num_nodes":"29","size_leaf_vector":"1"}},{"base_weights":[3.0050363E-4,-3.5363347E-3,2.2282656E-2,-5.052966E-3,2.1335851E-2,1.7633568E-2,3.363882E-2,-9.042524E-3,4.5181387E-3,9.031777E-3,3.216685E-2,2.7796285E-2,7.5264922E-3,4.387978E-2,2.4455946E-2,4.069017E-4,-3.4778152E-4,5.0655496E-4,-1.0802405E-4,1.0915166E-3,-4.3002382E-4,1.3461267E-3,3.186131E-4,6.0296454E-4,1.4421213E-3,4.4812908E-4,2.970361E-5,1.1138166E-3,1.6335889E-3,5.270038E-4,1.2026473E-3],"categories":[],"categories_nodes":[],"categories_segments":[],"categories_sizes":[],"default_left":[0,0,0,0,0,0,0,0,0,0,0,0,0,0,0,0,0,0,0,0,0,0,0,0,0,0,0,0,0,0,0],"id":35,"left_children":[1,3,5,7,9,11,13,15,17,19,21,23,25,27,29,-1,-1,-1,-1,-1,-1,-1,-1,-1,-1,-1,-1,-1,-1,-1,-1],"loss_changes":[1.2389779E0,4.7189602E-1,1.14660025E-1,4.501976E-1,9.552726E-2,1.5910232E-1,5.845517E-2,4.7985834E-1,3.483732E-1,2.165396E-1,1.04086995E-1,1.196695E-1,3.7721522E-2,1.9254327E-2,3.5480723E-2,0E0,0E0,0E0,0E0,0E0,0E0,0E0,0E0,0E0,0E0,0E0,0E0,0E0,0E0,0E0,0E0],"parents":[2147483647,0,0,1,1,2,2,3,3,4,4,5,5,6,6,7,7,8,8,9,9,10,10,11,11,12,12,13,13,14,14],"right_children":[2,4,6,8,10,12,14,16,18,20,22,24,26,28,30,-1,-1,-1,-1,-1,-1,-1,-1,-1,-1,-1,-1,-1,-1,-1,-1],"split_conditions":[2.5881904E-1,8.660254E-1,-7.0710677E-1,1E0,1.5E1,0E0,6.234898E-1,4E0,0E0,6E0,1.7E1,1E0,1.5E1,8E0,-5E-1,4.069017E-4,-3.4778152E-4,5.0655496E-4,-1.0802405E-4,1.0915166E-3,-4.3002382E-4,1.3461267E-3,3.186131E-4,6.0296454E-4,1.4421213E-3,4.4812908E-4,2.970361E-5,1.1138166E-3,1.6335889E-3,5.270038E-4,1.2026473E-3],"split_indices":[1,0,0,7,6,2,3,6,2,6,6,7,6,6,0,0,0,0,0,0,0,0,0,0,0,0,0,0,0,0,0],"split_type":[0,0,0,0,0,0,0,0,0,0,0,0,0,0,0,0,0,0,0,0,0,0,0,0,0,0,0,0,0,0,0],"sum_hessian":[1.4688E4,1.2506E4,2.182E3,1.1788E4,7.18E2,1.55E3,6.32E2,8.32E3,3.468E3,3.37E2,3.81E2,7.72E2,7.78E2,2.97E2,3.35E2,8.43E2,7.477E3,1.374E3,2.094E3,1.55E2,1.82E2,2.39E2,1.42E2,5.61E2,2.11E2,3.64E2,4.14E2,1.84E2,1.13E2,2.34E2,1.01E2],"tree_param":{"num_deleted":"0","num_feature":"9","num_nodes":"31","size_leaf_vector":"1"}},{"base_weights":[-4.1644074E-4,-4.138922E-3,2.101987E-2,9.5694215E-4,-1.2377329E-2,2.3066247E-2,-9.634728E-3,6.097737E-3,-1.1560403E-2,-1.6724741E-2,-9.5801795E-4,3.0163707E-2,1.4711709E-2,-2.6352936E-3,-1.9776342E-3,9.004179E-5,9.771411E-4,-5.5874535E-4,1.381598E-4,-5.446344E-4,-8.5342785E-5,-3.104075E-4,5.6050805E-4,7.0776604E-4,1.2470298E-3,3.296277E-4,9.4813027E-4,2.1765556E-4,-1.4376539E-3],"categories":[],"categories_nodes":[],"categories_segments":[],"categories_sizes":[],"default_left":[0,0,0,0,0,0,0,0,0,0,0,0,0,0,0,0,0,0,0,0,0,0,0,0,0,0,0,0,0],"id":36,"left_children":[1,3,5,7,9,11,13,15,17,19,21,23,25,27,-1,-1,-1,-1,-1,-1,-1,-1,-1,-1,-1,-1,-1,-1,-1],"loss_changes":[1.1659901E0,5.226853E-1,1.358465E-1,4.9510816E-1,2.3619229E-1,1.1974919E-1,5.3406615E-2,4.469746E-1,2.5589797E-1,6.833339E-2,2.4232782E-1,8.107984E-2,5.834788E-2,5.499212E-2,0E0,0E0,0E0,0E0,0E0,0E0,0E0,0E0,0E0,0E0,0E0,0E0,0E0,0E0,0E0],"parents":[2147483647,0,0,1,1,2,2,3,3,4,4,5,5,6,6,7,7,8,8,9,9,10,10,11,11,12,12,13,13],"right_children":[2,4,6,8,10,12,14,16,18,20,22,24,26,28,-1,-1,-1,-1,-1,-1,-1,-1,-1,-1,-1,-1,-1,-1,-1],"split_conditions":[2.5881904E-1,4.6E1,1.9E1,1.8E1,1E0,4.8666668E1,5E0,1E0,1E0,-1.8369701E-16,-5E-1,7.0710677E-1,1E0,1E0,-1.9776342E-3,9.004179E-5,9.771411E-4,-5.5874535E-4,1.381598E-4,-5.446344E-4,-8.5342785E-5,-3.104075E-4,5.6050805E-4,7.0776604E-4,1.2470298E-3,3.296277E-4,9.4813027E-4,2.1765556E-4,-1.4376539E-3],"split_indices":[1,8,6,6,5,8,8,5,7,1,1,1,5,3,0,0,0,0,0,0,0,0,0,0,0,0,0,0,0],"split_type":[0,0,0,0,0,0,0,0,0,0,0,0,0,0,0,0,0,0,0,0,0,0,0,0,0,0,0,0,0],"sum_hessian":[1.461E4,1.2449E4,2.161E3,7.692E3,4.757E3,2.026E3,1.35E2,5.453E3,2.239E3,3.445E3,1.312E3,1.094E3,9.32E2,1.21E2,1.4E1,4.883E3,5.7E2,1.558E3,6.81E2,3.123E3,3.22E2,8.88E2,4.24E2,6.96E2,3.98E2,7.65E2,1.67E2,1E2,2.1E1],"tree_param":{"num_deleted":"0","num_feature":"9","num_nodes":"29","size_leaf_vector":"1"}},{"base_weights":[4.5564582E-5,-3.5863821E-3,2.114365E-2,-7.110257E-3,4.8768935E-3,1.32730175E-2,2.7558109E-2,-2.7742623E-3,-2.3490485E-2,-2.2783042E-3,3.2112766E-2,2.284122E-2,4.1979095E-3,3.2569934E-2,1.2100701E-2,6.82452E-4,-1.6457422E-4,-5.1138987E-4,-9.062688E-4,-3.9480816E-4,7.072585E-5,-9.5145137E-4,1.1490803E-3,5.133209E-4,1.6940129E-3,-4.130815E-5,1.1467244E-3,1.2401404E-3,7.70272E-4,-1.1921885E-4,1.4768156E-3],"categories":[],"categories_nodes":[],"categories_segments":[],"categories_sizes":[],"default_left":[0,0,0,0,0,0,0,0,0,0,0,0,0,0,0,0,0,0,0,0,0,0,0,0,0,0,0,0,0,0,0],"id":37,"left_children":[1,3,5,7,9,11,13,15,17,19,21,23,25,27,29,-1,-1,-1,-1,-1,-1,-1,-1,-1,-1,-1,-1,-1,-1,-1,-1],"loss_changes":[1.1202111E0,3.7199366E-1,1.0802734E-1,6.253773E-1,7.14691E-1,8.37843E-2,9.11752E-2,4.8207426E-1,7.9277515E-2,1.465795E-1,3.0266732E-1,8.959991E-2,9.4329126E-2,5.2859068E-2,1.7386317E-1,0E0,0E0,0E0,0E0,0E0,0E0,0E0,0E0,0E0,0E0,0E0,0E0,0E0,0E0,0E0,0E0],"parents":[2147483647,0,0,1,1,2,2,3,3,4,4,5,5,6,6,7,7,8,8,9,9,10,10,11,11,12,12,13,13,14,14],"right_children":[2,4,6,8,10,12,14,16,18,20,22,24,26,28,30,-1,-1,-1,-1,-1,-1,-1,-1,-1,-1,-1,-1,-1,-1,-1,-1],"split_conditions":[2.5881904E-1,1E0,-8.660254E-1,1.1E1,1.1E1,1.5E1,1.1E1,4E0,1.5E1,8E0,4E0,1.4E1,1E0,6.234898E-1,1E0,6.82452E-4,-1.6457422E-4,-5.1138987E-4,-9.062688E-4,-3.9480816E-4,7.072585E-5,-9.5145137E-4,1.1490803E-3,5.133209E-4,1.6940129E-3,-4.130815E-5,1.1467244E-3,1.2401404E-3,7.70272E-4,-1.1921885E-4,1.4768156E-3],"split_indices":[1,7,0,4,4,6,4,6,6,6,6,6,5,3,7,0,0,0,0,0,0,0,0,0,0,0,0,0,0,0,0],"split_type":[0,0,0,0,0,0,0,0,0,0,0,0,0,0,0,0,0,0,0,0,0,0,0,0,0,0,0,0,0,0,0],"sum_hessian":[1.4617E4,1.2471E4,2.146E3,8.805E3,3.666E3,9.65E2,1.181E3,6.963E3,1.842E3,2.904E3,7.62E2,4.69E2,4.96E2,8.91E2,2.9E2,6.68E2,6.295E3,9.42E2,9E2,8.67E2,2.037E3,6.7E1,6.95E2,4.02E2,6.7E1,4.27E2,6.9E1,3.9E2,5.01E2,2.03E2,8.7E1],"tree_param":{"num_deleted":"0","num_feature":"9","num_nodes":"31","size_leaf_vector":"1"}},{"base_weights":[3.0183105E-4,-3.0605923E-3,1.9986862E-2,1.9029791E-3,-1.1133592E-2,1.7946687E-2,4.2675987E-2,7.252186E-3,-1.103873E-2,-1.6418016E-2,-6.290198E-3,2.4871456E-2,9.202034E-3,3.1026015E-2,4.506601E-2,-2.2722447E-4,3.0033736E-4,-5.2423007E-4,1.2653787E-4,-2.3963203E-4,-6.585097E-4,9.417774E-5,-2.9655363E-4,3.7079296E-4,8.6019107E-4,-1.982529E-5,9.620038E-4,3.642513E-4,2.030725E-3,1.2768093E-3,1.6276478E-3],"categories":[],"categories_nodes":[],"categories_segments":[],"categories_sizes":[],"default_left":[0,0,0,0,0,0,0,0,0,0,0,0,0,0,0,0,0,0,0,0,0,0,0,0,0,0,0,0,0,0,0],"id":38,"left_children":[1,3,5,7,9,11,13,15,17,19,21,23,25,27,29,-1,-1,-1,-1,-1,-1,-1,-1,-1,-1,-1,-1,-1,-1,-1,-1],"loss_changes":[9.663604E-1,4.9970543E-1,9.783137E-2,5.34727E-1,1.2141961E-1,1.1821604E-1,3.4744143E-3,2.2363114E-1,2.2187555E-1,1.0569501E-1,8.406459E-2,5.153823E-2,1.9531484E-1,2.2026975E-2,9.83417E-4,0E0,0E0,0E0,0E0,0E0,0E0,0E0,0E0,0E0,0E0,0E0,0E0,0E0,0E0,0E0,0E0],"parents":[2147483647,0,0,1,1,2,2,3,3,4,4,5,5,6,6,7,7,8,8,9,9,10,10,11,11,12,12,13,13,14,14],"right_children":[2,4,6,8,10,12,14,16,18,20,22,24,26,28,30,-1,-1,-1,-1,-1,-1,-1,-1,-1,-1,-1,-1,-1,-1,-1,-1],"split_conditions":[2.5881904E-1,4.6E1,-5E-1,1.8E1,-7.0710677E-1,1E1,5.75E0,3.75E0,1E0,1.2246469E-16,1.19E2,9E0,1E0,1.1E1,1E0,-2.2722447E-4,3.0033736E-4,-5.2423007E-4,1.2653787E-4,-2.3963203E-4,-6.585097E-4,9.417774E-5,-2.9655363E-4,3.7079296E-4,8.6019107E-4,-1.982529E-5,9.620038E-4,3.642513E-4,2.030725E-3,1.2768093E-3,1.6276478E-3],"split_indices":[1,8,0,6,1,4,8,8,7,0,8,4,7,4,3,0,0,0,0,0,0,0,0,0,0,0,0,0,0,0,0],"split_type":[0,0,0,0,0,0,0,0,0,0,0,0,0,0,0,0,0,0,0,0,0,0,0,0,0,0,0,0,0,0,0],"sum_hessian":[1.4598E4,1.2469E4,2.129E3,7.722E3,4.747E3,1.955E3,1.74E2,5.464E3,2.258E3,2.269E3,2.478E3,1.09E3,8.65E2,3.2E1,1.42E2,8.57E2,4.607E3,1.588E3,6.7E2,9E2,1.369E3,6.84E2,1.794E3,2.55E2,8.35E2,6.05E2,2.6E2,2.2E1,1E1,1.16E2,2.6E1],"tree_param":{"num_deleted":"0","num_feature":"9","num_nodes":"31","size_leaf_vector":"1"}},{"base_weights":[-5.724923E-5,3.5146025E-3,-9.491875E-3,7.3019825E-3,-8.809203E-3,-2.2199221E-3,-1.5569252E-2,1.8913636E-2,1.7769625E-3,-1.5100686E-2,6.351018E-3,-2.6004946E-2,1.3537601E-3,-2.8481763E-2,-1.3955484E-2,1.7052757E-3,3.4742226E-4,-5.8340654E-4,1.6290607E-4,-2.4763582E-4,-7.515191E-4,-2.651086E-4,1.7784662E-3,5.6850888E-5,-9.2061545E-4,-1.2931625E-4,4.7085682E-4,-6.865378E-4,-9.889277E-4,-2.2755249E-4,-5.1396945E-4],"categories":[],"categories_nodes":[],"categories_segments":[],"categories_sizes":[],"default_left":[0,0,0,0,0,0,0,0,0,0,0,0,0,0,0,0,0,0,0,0,0,0,0,0,0,0,0,0,0,0,0],"id":39,"left_children":[1,3,5,7,9,11,13,15,17,19,21,23,25,27,29,-1,-1,-1,-1,-1,-1,-1,-1,-1,-1,-1,-1,-1,-1,-1,-1],"loss_changes":[4.8863637E-1,4.909913E-1,1.7594752E-1,5.161544E-1,2.3597129E-1,1.5422541E-1,4.4799745E-2,7.2080714E-1,4.2290834E-1,1.1886516E-1,5.841679E-1,3.1018496E-2,1.2825555E-1,5.267039E-3,3.8928777E-2,0E0,0E0,0E0,0E0,0E0,0E0,0E0,0E0,0E0,0E0,0E0,0E0,0E0,0E0,0E0,0E0],"parents":[2147483647,0,0,1,1,2,2,3,3,4,4,5,5,6,6,7,7,8,8,9,9,10,10,11,11,12,12,13,13,14,14],"right_children":[2,4,6,8,10,12,14,16,18,20,22,24,26,28,30,-1,-1,-1,-1,-1,-1,-1,-1,-1,-1,-1,-1,-1,-1,-1,-1],"split_conditions":[1.3366667E2,1.8E1,-5E-1,-4.3388373E-1,1E0,9E0,9E0,4E0,4E0,1.2246469E-16,1.1E1,-7.818315E-1,1E0,2.975E2,6E0,1.7052757E-3,3.4742226E-4,-5.8340654E-4,1.6290607E-4,-2.4763582E-4,-7.515191E-4,-2.651086E-4,1.7784662E-3,5.6850888E-5,-9.2061545E-4,-1.2931625E-4,4.7085682E-4,-6.865378E-4,-9.889277E-4,-2.2755249E-4,-5.1396945E-4],"split_indices":[8,6,0,2,7,4,4,6,6,0,4,2,7,8,6,0,0,0,0,0,0,0,0,0,0,0,0,0,0,0,0],"split_type":[0,0,0,0,0,0,0,0,0,0,0,0,0,0,0,0,0,0,0,0,0,0,0,0,0,0,0,0,0,0,0],"sum_hessian":[1.4498E4,1.0517E4,3.981E3,8.045E3,2.472E3,1.813E3,2.168E3,2.593E3,5.452E3,1.747E3,7.25E2,2.36E2,1.577E3,2.39E2,1.929E3,4.19E2,2.174E3,8E2,4.652E3,1.036E3,7.11E2,5.64E2,1.61E2,3.4E1,2.02E2,1.131E3,4.46E2,1.09E2,1.3E2,6.43E2,1.286E3],"tree_param":{"num_deleted":"0","num_feature":"9","num_nodes":"31","size_leaf_vector":"1"}},{"base_weights":[-1.8837101E-5,4.6745236E-3,-6.9360766E-3,5.262675E-4,1.3966977E-2,-1.0006797E-2,1.5727399E-2,4.607922E-3,-1.0263752E-2,2.7083548E-2,4.218312E-3,-5.930689E-3,-1.733139E-2,2.4660587E-2,-2.6742332E-2,4.7894457E-4,-6.48428E-5,-4.990849E-4,1.930722E-4,6.251158E-3,7.879615E-4,-7.903572E-4,2.0099548E-4,-3.5438253E-4,4.326393E-4,-2.0308048E-4,-6.4153306E-4,9.677391E-4,3.1753407E-5,-2.8092385E-4,-1.3816935E-3],"categories":[],"categories_nodes":[],"categories_segments":[],"categories_sizes":[],"default_left":[0,0,0,0,0,0,0,0,0,0,0,0,0,0,0,0,0,0,0,0,0,0,0,0,0,0,0,0,0,0,0],"id":40,"left_children":[1,3,5,7,9,11,13,15,17,19,21,23,25,27,29,-1,-1,-1,-1,-1,-1,-1,-1,-1,-1,-1,-1,-1,-1,-1,-1],"loss_changes":[4.7425008E-1,3.3547133E-1,4.111051E-1,2.6508683E-1,3.43342E-1,1.5517741E-1,2.6812953E-1,3.357643E-1,1.7590638E-1,1.643576E-1,1.1712887E-1,4.0036672E-1,7.9436064E-2,1.04506195E-1,4.0853024E-2,0E0,0E0,0E0,0E0,0E0,0E0,0E0,0E0,0E0,0E0,0E0,0E0,0E0,0E0,0E0,0E0],"parents":[2147483647,0,0,1,1,2,2,3,3,4,4,5,5,6,6,7,7,8,8,9,9,10,10,11,11,12,12,13,13,14,14],"right_children":[2,4,6,8,10,12,14,16,18,20,22,24,26,28,30,-1,-1,-1,-1,-1,-1,-1,-1,-1,-1,-1,-1,-1,-1,-1,-1],"split_conditions":[1.2246469E-16,1E0,8.660254E-1,1.465E2,0E0,4.6E1,1.2625E2,-4.3388373E-1,1E0,1.5E0,4E0,1.4E1,6E0,1.7E1,1E0,4.7894457E-4,-6.48428E-5,-4.990849E-4,1.930722E-4,6.251158E-3,7.879615E-4,-7.903572E-4,2.0099548E-4,-3.5438253E-4,4.326393E-4,-2.0308048E-4,-6.4153306E-4,9.677391E-4,3.1753407E-5,-2.8092385E-4,-1.3816935E-3],"split_indices":[0,7,0,8,2,8,8,2,5,8,6,8,6,6,3,0,0,0,0,0,0,0,0,0,0,0,0,0,0,0,0],"split_type":[0,0,0,0,0,0,0,0,0,0,0,0,0,0,0,0,0,0,0,0,0,0,0,0,0,0,0,0,0,0,0],"sum_hessian":[1.4606E4,8.702E3,5.904E3,6.017E3,2.685E3,5.2E3,7.04E2,4.366E3,1.651E3,1.144E3,1.541E3,3.342E3,1.858E3,5.82E2,1.22E2,1.63E3,2.736E3,1.195E3,4.56E2,4E0,1.14E3,1.15E2,1.426E3,2.593E3,7.49E2,5.16E2,1.342E3,4.4E2,1.42E2,6.5E1,5.7E1],"tree_param":{"num_deleted":"0","num_feature":"9","num_nodes":"31","size_leaf_vector":"1"}},{"base_weights":[3.4395268E-4,-2.8272164E-3,1.8987052E-2,2.6889609E-3,-1.1641081E-2,2.0999856E-2,-1.1181461E-2,7.1332217E-3,-7.9713985E-3,-1.5222114E-2,-2.4874287E-3,2.820063E-2,1.29063055E-2,-5.6326073E-3,-4.662782E-2,1.4014E-4,8.413403E-4,-4.4045944E-4,2.2702938E-4,-1.0610294E-3,-4.3110983E-4,-3.2578665E-4,4.572551E-4,6.3730084E-4,1.2013462E-3,-4.4348705E-4,5.205611E-4,3.788852E-5,-7.9801824E-4,-3.359065E-4,-1.5890264E-3],"categories":[],"categories_nodes":[],"categories_segments":[],"categories_sizes":[],"default_left":[0,0,0,0,0,0,0,0,0,0,0,0,0,0,0,0,0,0,0,0,0,0,0,0,0,0,0,0,0,0,0],"id":41,"left_children":[1,3,5,7,9,11,13,15,17,19,21,23,25,27,29,-1,-1,-1,-1,-1,-1,-1,-1,-1,-1,-1,-1,-1,-1,-1,-1],"loss_changes":[8.6705464E-1,6.094199E-1,1.296969E-1,3.6533675E-1,1.5812331E-1,1.16137445E-1,2.6093375E-2,2.800322E-1,2.3671345E-1,5.9001565E-2,2.017357E-1,8.624983E-2,1.16338655E-1,1.6950166E-2,3.4501366E-3,0E0,0E0,0E0,0E0,0E0,0E0,0E0,0E0,0E0,0E0,0E0,0E0,0E0,0E0,0E0,0E0],"parents":[2147483647,0,0,1,1,2,2,3,3,4,4,5,5,6,6,7,7,8,8,9,9,10,10,11,11,12,12,13,13,14,14],"right_children":[2,4,6,8,10,12,14,16,18,20,22,24,26,28,30,-1,-1,-1,-1,-1,-1,-1,-1,-1,-1,-1,-1,-1,-1,-1,-1],"split_conditions":[2.5881904E-1,4.6E1,1.9E1,1.8E1,1E0,4.8666668E1,5E0,1E0,1E0,4.8666668E1,-5E-1,-7.0710677E-1,9E0,1.1E1,9E0,1.4014E-4,8.413403E-4,-4.4045944E-4,2.2702938E-4,-1.0610294E-3,-4.3110983E-4,-3.2578665E-4,4.572551E-4,6.3730084E-4,1.2013462E-3,-4.4348705E-4,5.205611E-4,3.788852E-5,-7.9801824E-4,-3.359065E-4,-1.5890264E-3],"split_indices":[1,8,6,6,5,8,8,5,7,8,1,0,4,4,4,0,0,0,0,0,0,0,0,0,0,0,0,0,0,0,0],"split_type":[0,0,0,0,0,0,0,0,0,0,0,0,0,0,0,0,0,0,0,0,0,0,0,0,0,0,0,0,0,0,0],"sum_hessian":[1.4664E4,1.2533E4,2.131E3,7.709E3,4.824E3,1.998E3,1.33E2,5.441E3,2.268E3,3.467E3,1.357E3,1.056E3,9.42E2,1.16E2,1.7E1,4.869E3,5.72E2,1.584E3,6.84E2,1.39E2,3.328E3,9.22E2,4.35E2,6.67E2,3.89E2,1.3E2,8.12E2,8.8E1,2.8E1,3E0,1.4E1],"tree_param":{"num_deleted":"0","num_feature":"9","num_nodes":"31","size_leaf_vector":"1"}},{"base_weights":[-1.7051652E-4,-3.3917536E-3,1.878437E-2,1.3791258E-3,-1.03534805E-2,2.0900518E-2,-1.42784165E-2,6.258143E-3,-9.955456E-3,-1.4236446E-2,-3.680626E-4,2.8933477E-2,1.3069564E-2,-2.5044668E-2,4.8090527E-3,1.0831875E-4,9.6018834E-4,-4.5529875E-4,7.287826E-5,-4.5612423E-6,-4.6980422E-4,-2.736369E-4,5.220103E-4,1.1844353E-3,5.845896E-4,1.8027631E-4,8.675702E-4,-1.138371E-3,1.766253E-4,5.360795E-4,-5.7868834E-4],"categories":[],"categories_nodes":[],"categories_segments":[],"categories_sizes":[],"default_left":[0,0,0,0,0,0,0,0,0,0,0,0,0,0,0,0,0,0,0,0,0,0,0,0,0,0,0,0,0,0,0],"id":42,"left_children":[1,3,5,7,9,11,13,15,17,19,21,23,25,27,29,-1,-1,-1,-1,-1,-1,-1,-1,-1,-1,-1,-1,-1,-1,-1,-1],"loss_changes":[8.9029205E-1,4.1395485E-1,1.484859E-1,4.0907305E-1,1.9649655E-1,1.2486714E-1,2.6424507E-2,3.523845E-1,1.4397621E-1,7.316691E-2,2.2101107E-1,9.708285E-2,1.12847924E-1,3.2946076E-2,1.51372375E-2,0E0,0E0,0E0,0E0,0E0,0E0,0E0,0E0,0E0,0E0,0E0,0E0,0E0,0E0,0E0,0E0],"parents":[2147483647,0,0,1,1,2,2,3,3,4,4,5,5,6,6,7,7,8,8,9,9,10,10,11,11,12,12,13,13,14,14],"right_children":[2,4,6,8,10,12,14,16,18,20,22,24,26,28,30,-1,-1,-1,-1,-1,-1,-1,-1,-1,-1,-1,-1,-1,-1,-1,-1],"split_conditions":[2.5881904E-1,3.875E1,1.9E1,1.8E1,1E0,0E0,4.3388373E-1,1E0,1E0,-9.659258E-1,-5E-1,3.875E1,-7.0710677E-1,1E0,9.749279E-1,1.0831875E-4,9.6018834E-4,-4.5529875E-4,7.287826E-5,-4.5612423E-6,-4.6980422E-4,-2.736369E-4,5.220103E-4,1.1844353E-3,5.845896E-4,1.8027631E-4,8.675702E-4,-1.138371E-3,1.766253E-4,5.360795E-4,-5.7868834E-4],"split_indices":[1,8,6,6,5,2,2,5,7,0,1,8,0,7,2,0,0,0,0,0,0,0,0,0,0,0,0,0,0,0,0],"split_type":[0,0,0,0,0,0,0,0,0,0,0,0,0,0,0,0,0,0,0,0,0,0,0,0,0,0,0,0,0,0,0],"sum_hessian":[1.4579E4,1.2462E4,2.117E3,7.395E3,5.067E3,1.99E3,1.27E2,5.17E3,2.225E3,3.648E3,1.419E3,9.81E2,1.009E3,8.1E1,4.6E1,4.689E3,4.81E2,1.565E3,6.6E2,3.35E2,3.313E3,9.51E2,4.68E2,4.62E2,5.19E2,6.99E2,3.1E2,5.7E1,2.4E1,3E1,1.6E1],"tree_param":{"num_deleted":"0","num_feature":"9","num_nodes":"31","size_leaf_vector":"1"}},{"base_weights":[2.6536803E-4,-2.9383523E-3,1.8926952E-2,1.1264093E-3,-1.0455774E-2,2.0747995E-2,-8.529941E-3,-5.304535E-4,2.7675617E-2,3.5879042E-3,-1.1836749E-2,2.549933E-2,1.1499793E-2,-9.418187E-4,-5.440848E-2,2.764162E-4,-1.5008372E-4,1.123025E-3,1.19631615E-4,5.819977E-4,-3.127664E-4,-3.882269E-4,1.0078289E-4,9.5169165E-4,5.702221E-4,5.6104782E-5,5.69206E-4,-3.766004E-4,5.297266E-4,-1.923778E-3,-6.799904E-4],"categories":[],"categories_nodes":[],"categories_segments":[],"categories_sizes":[],"default_left":[0,0,0,0,0,0,0,0,0,0,0,0,0,0,0,0,0,0,0,0,0,0,0,0,0,0,0,0,0,0,0],"id":43,"left_children":[1,3,5,7,9,11,13,15,17,19,21,23,25,27,29,-1,-1,-1,-1,-1,-1,-1,-1,-1,-1,-1,-1,-1,-1,-1,-1],"loss_changes":[8.7443304E-1,3.8144886E-1,1.073274E-1,3.5645264E-1,8.500749E-2,8.802885E-2,4.6598442E-2,3.324737E-1,1.0988259E-1,8.728357E-2,6.697422E-2,5.3013027E-2,4.919158E-2,2.527385E-2,4.4071004E-3,0E0,0E0,0E0,0E0,0E0,0E0,0E0,0E0,0E0,0E0,0E0,0E0,0E0,0E0,0E0,0E0],"parents":[2147483647,0,0,1,1,2,2,3,3,4,4,5,5,6,6,7,7,8,8,9,9,10,10,11,11,12,12,13,13,14,14],"right_children":[2,4,6,8,10,12,14,16,18,20,22,24,26,28,30,-1,-1,-1,-1,-1,-1,-1,-1,-1,-1,-1,-1,-1,-1,-1,-1],"split_conditions":[2.5881904E-1,5.175E1,1.9E1,8.660254E-1,-9.659258E-1,4.3388373E-1,1E0,-4.3388373E-1,1.7E1,0E0,8.660254E-1,4.1E1,-8.660254E-1,6.234898E-1,4E0,2.764162E-4,-1.5008372E-4,1.123025E-3,1.19631615E-4,5.819977E-4,-3.127664E-4,-3.882269E-4,1.0078289E-4,9.5169165E-4,5.702221E-4,5.6104782E-5,5.69206E-4,-3.766004E-4,5.297266E-4,-1.923778E-3,-6.799904E-4],"split_indices":[1,8,6,0,0,2,3,2,6,2,0,8,0,3,8,0,0,0,0,0,0,0,0,0,0,0,0,0,0,0,0],"split_type":[0,0,0,0,0,0,0,0,0,0,0,0,0,0,0,0,0,0,0,0,0,0,0,0,0,0,0,0,0,0,0],"sum_hessian":[1.4624E4,1.2482E4,2.142E3,8.102E3,4.38E3,2.009E3,1.33E2,7.627E3,4.75E2,3.92E2,3.988E3,1.326E3,6.83E2,1.15E2,1.8E1,2.399E3,5.228E3,3.36E2,1.39E2,1.84E2,2.08E2,3.718E3,2.7E2,6.75E2,6.51E2,2.99E2,3.84E2,7.1E1,4.4E1,1.3E1,5E0],"tree_param":{"num_deleted":"0","num_feature":"9","num_nodes":"31","size_leaf_vector":"1"}},{"base_weights":[-1.312524E-4,-3.339062E-3,1.885795E-2,-6.541998E-3,4.3147444E-3,2.0731537E-2,-9.924134E-3,-2.1715865E-3,-2.2998858E-2,-1.630601E-3,2.5702268E-2,2.5221454E-2,1.19671E-2,-2.1825796E-2,8.348086E-3,6.462984E-4,-1.3720238E-4,-5.2443036E-4,-8.6848944E-4,2.7016056E-4,-2.2494105E-4,-9.1287185E-4,9.4048044E-4,6.450104E-4,1.036242E-3,-3.958193E-4,4.6696854E-4,-9.737354E-4,1.6416438E-4,6.014712E-4,-7.453118E-4],"categories":[],"categories_nodes":[],"categories_segments":[],"categories_sizes":[],"default_left":[0,0,0,0,0,0,0,0,0,0,0,0,0,0,0,0,0,0,0,0,0,0,0,0,0,0,0,0,0,0,0],"id":44,"left_children":[1,3,5,7,9,11,13,15,17,19,21,23,25,27,29,-1,-1,-1,-1,-1,-1,-1,-1,-1,-1,-1,-1,-1,-1,-1,-1],"loss_changes":[8.9190114E-1,3.0709875E-1,1.1431253E-1,6.351043E-1,4.700113E-1,7.78898E-2,2.8453274E-2,3.976153E-1,6.033814E-2,1.8060736E-1,2.5580436E-1,4.479289E-2,6.1321616E-2,2.3106031E-2,2.0693641E-2,0E0,0E0,0E0,0E0,0E0,0E0,0E0,0E0,0E0,0E0,0E0,0E0,0E0,0E0,0E0,0E0],"parents":[2147483647,0,0,1,1,2,2,3,3,4,4,5,5,6,6,7,7,8,8,9,9,10,10,11,11,12,12,13,13,14,14],"right_children":[2,4,6,8,10,12,14,16,18,20,22,24,26,28,30,-1,-1,-1,-1,-1,-1,-1,-1,-1,-1,-1,-1,-1,-1,-1,-1],"split_conditions":[2.5881904E-1,1E0,1.9E1,1.1E1,1.1E1,4.3388373E-1,4.3388373E-1,4E0,1.5E1,0E0,4E0,1E0,9E0,1E0,1.1E1,6.462984E-4,-1.3720238E-4,-5.2443036E-4,-8.6848944E-4,2.7016056E-4,-2.2494105E-4,-9.1287185E-4,9.4048044E-4,6.450104E-4,1.036242E-3,-3.958193E-4,4.6696854E-4,-9.737354E-4,1.6416438E-4,6.014712E-4,-7.453118E-4],"split_indices":[1,7,6,4,4,2,2,6,6,2,6,7,4,7,4,0,0,0,0,0,0,0,0,0,0,0,0,0,0,0,0],"split_type":[0,0,0,0,0,0,0,0,0,0,0,0,0,0,0,0,0,0,0,0,0,0,0,0,0,0,0,0,0,0,0],"sum_hessian":[1.464E4,1.2525E4,2.115E3,8.83E3,3.695E3,1.986E3,1.29E2,6.978E3,1.852E3,2.892E3,8.03E2,1.312E3,6.74E2,7.8E1,5.1E1,6.41E2,6.337E3,9.63E2,8.89E2,1.028E3,1.864E3,7.3E1,7.3E2,9.4E2,3.72E2,8.4E1,5.9E2,5.6E1,2.2E1,3.8E1,1.3E1],"tree_param":{"num_deleted":"0","num_feature":"9","num_nodes":"31","size_leaf_vector":"1"}},{"base_weights":[9.5493924E-5,-6.0636625E-3,8.651205E-3,-9.697732E-3,2.746382E-3,5.0897016E-3,2.123951E-2,-6.0919616E-3,-2.390248E-2,-3.0886186E-3,2.4180166E-2,2.393053E-3,1.8478824E-2,-2.4087091E-3,2.1829369E-2,5.784262E-4,-2.6694025E-4,-1.4476618E-3,-6.387857E-4,1.5413738E-4,-2.5232084E-4,-9.5930725E-4,8.871701E-4,-8.342971E-5,4.183266E-4,1.1730493E-3,-1.3434394E-4,9.101575E-4,4.789566E-4],"categories":[],"categories_nodes":[],"categories_segments":[],"categories_sizes":[],"default_left":[0,0,0,0,0,0,0,0,0,0,0,0,0,0,0,0,0,0,0,0,0,0,0,0,0,0,0,0,0],"id":45,"left_children":[1,3,5,7,9,11,13,15,17,19,21,23,25,-1,27,-1,-1,-1,-1,-1,-1,-1,-1,-1,-1,-1,-1,-1,-1],"loss_changes":[7.697297E-1,2.7194113E-1,2.740026E-1,3.0783457E-1,3.103638E-1,1.7207193E-1,8.248192E-2,3.4170526E-1,7.6315224E-2,8.5462354E-2,1.6173694E-1,2.3725101E-1,3.784514E-1,0E0,6.643063E-2,0E0,0E0,0E0,0E0,0E0,0E0,0E0,0E0,0E0,0E0,0E0,0E0,0E0,0E0],"parents":[2147483647,0,0,1,1,2,2,3,3,4,4,5,5,6,6,7,7,8,8,9,9,10,10,11,11,12,12,14,14],"right_children":[2,4,6,8,10,12,14,16,18,20,22,24,26,-1,28,-1,-1,-1,-1,-1,-1,-1,-1,-1,-1,-1,-1,-1,-1],"split_conditions":[-5E-1,1E0,-7.0710677E-1,1.1E1,1.1E1,1E0,4E0,4E0,4E0,1.2246469E-16,4E0,1E0,1E1,-2.4087091E-3,6.234898E-1,5.784262E-4,-2.6694025E-4,-1.4476618E-3,-6.387857E-4,1.5413738E-4,-2.5232084E-4,-9.5930725E-4,8.871701E-4,-8.342971E-5,4.183266E-4,1.1730493E-3,-1.3434394E-4,9.101575E-4,4.789566E-4],"split_indices":[1,7,0,4,4,5,6,6,6,0,6,7,4,0,3,0,0,0,0,0,0,0,0,0,0,0,0,0,0],"split_type":[0,0,0,0,0,0,0,0,0,0,0,0,0,0,0,0,0,0,0,0,0,0,0,0,0,0,0,0,0],"sum_hessian":[1.4605E4,8.492E3,6.113E3,6.012E3,2.48E3,4.766E3,1.347E3,4.796E3,1.216E3,1.95E3,5.3E2,3.968E3,7.98E2,7E0,1.34E3,4.77E2,4.319E3,1.16E2,1.1E3,7.66E2,1.184E3,4.6E1,4.84E2,2.741E3,1.227E3,4.2E2,3.78E2,5.45E2,7.95E2],"tree_param":{"num_deleted":"0","num_feature":"9","num_nodes":"29","size_leaf_vector":"1"}},{"base_weights":[-5.1231567E-5,-2.8388465E-3,1.6345443E-2,-4.1152956E-3,1.7437711E-2,2.3151789E-2,1.0167085E-2,1.10304485E-4,-9.336267E-3,6.0619107E-3,2.7683765E-2,2.5363822E-2,-8.261252E-3,4.506977E-3,2.4285382E-2,-1.4627841E-4,1.3615865E-4,-3.4403268E-4,3.95172E-5,8.7761343E-4,-4.6166527E-4,1.3038844E-3,1.4053834E-4,6.735257E-4,1.1369317E-3,-6.216583E-4,2.0633035E-4,2.9530426E-4,-3.7967344E-4,-1.14019036E-4,8.1996917E-4],"categories":[],"categories_nodes":[],"categories_segments":[],"categories_sizes":[],"default_left":[0,0,0,0,0,0,0,0,0,0,0,0,0,0,0,0,0,0,0,0,0,0,0,0,0,0,0,0,0,0,0],"id":46,"left_children":[1,3,5,7,9,11,13,15,17,19,21,23,25,27,29,-1,-1,-1,-1,-1,-1,-1,-1,-1,-1,-1,-1,-1,-1,-1,-1],"loss_changes":[6.6623485E-1,3.2250968E-1,8.883095E-2,2.585866E-1,8.58513E-2,7.01825E-2,8.875166E-2,1.43083E-1,1.1907238E-1,1.7506674E-1,1.4060345E-1,3.3505917E-2,1.2781503E-2,7.293785E-2,2.7317032E-2,0E0,0E0,0E0,0E0,0E0,0E0,0E0,0E0,0E0,0E0,0E0,0E0,0E0,0E0,0E0,0E0],"parents":[2147483647,0,0,1,1,2,2,3,3,4,4,5,5,6,6,7,7,8,8,9,9,10,10,11,11,12,12,13,13,14,14],"right_children":[2,4,6,8,10,12,14,16,18,20,22,24,26,28,30,-1,-1,-1,-1,-1,-1,-1,-1,-1,-1,-1,-1,-1,-1,-1,-1],"split_conditions":[2.5881904E-1,8.660254E-1,0E0,1.2246469E-16,1.5E1,1.9E1,-7.0710677E-1,6.234898E-1,1E0,6E0,1.7E1,1E0,6.234898E-1,1.1E1,9E0,-1.4627841E-4,1.3615865E-4,-3.4403268E-4,3.95172E-5,8.7761343E-4,-4.6166527E-4,1.3038844E-3,1.4053834E-4,6.735257E-4,1.1369317E-3,-6.216583E-4,2.0633035E-4,2.9530426E-4,-3.7967344E-4,-1.14019036E-4,8.1996917E-4],"split_indices":[1,0,2,0,6,6,0,3,5,6,6,5,3,4,4,0,0,0,0,0,0,0,0,0,0,0,0,0,0,0,0],"split_type":[0,0,0,0,0,0,0,0,0,0,0,0,0,0,0,0,0,0,0,0,0,0,0,0,0,0,0,0,0,0,0],"sum_hessian":[1.4574E4,1.2457E4,2.117E3,1.172E4,7.37E2,1.006E3,1.111E3,6.478E3,5.242E3,3.5E2,3.87E2,9.4E2,6.6E1,7.94E2,3.17E2,3.047E3,3.431E3,4.368E3,8.74E2,1.68E2,1.82E2,2.29E2,1.58E2,7.65E2,1.75E2,3.6E1,3E1,6.06E2,1.88E2,3.1E1,2.86E2],"tree_param":{"num_deleted":"0","num_feature":"9","num_nodes":"31","size_leaf_vector":"1"}},{"base_weights":[-1.9074347E-5,-2.844847E-3,1.6333979E-2,1.5737289E-3,-9.924111E-3,9.483097E-3,2.2056367E-2,-7.1538385E-4,2.1214752E-2,-1.3287748E-2,-1.1143495E-3,2.123628E-2,2.3851164E-3,3.1447444E-2,1.4870874E-2,-1.5931262E-4,3.042197E-4,1.0081256E-3,-3.830275E-4,-7.371485E-4,-3.4846202E-4,-3.10794E-4,5.2960514E-4,-1.9723957E-3,7.5290434E-4,2.4113928E-3,1.2938249E-5,3.0505777E-4,1.2228613E-3,2.7536714E-4,8.06306E-4],"categories":[],"categories_nodes":[],"categories_segments":[],"categories_sizes":[],"default_left":[0,0,0,0,0,0,0,0,0,0,0,0,0,0,0,0,0,0,0,0,0,0,0,0,0,0,0,0,0,0,0],"id":47,"left_children":[1,3,5,7,9,11,13,15,17,19,21,23,25,27,29,-1,-1,-1,-1,-1,-1,-1,-1,-1,-1,-1,-1,-1,-1,-1,-1],"loss_changes":[6.7619133E-1,3.902995E-1,